2435 50
</s> 0.006804 0.005548 -0.009141 0.006886 -0.006334 -0.004657 0.001466 0.000226 0.003968 0.009449 0.005490 0.008181 -0.007108 -0.005447 0.005335 0.004303 -0.001710 -0.009231 -0.009726 -0.003740 0.007461 0.000735 -0.001453 -0.003298 0.003764 0.007771 0.004547 -0.005289 -0.005550 -0.008696 -0.002950 -0.002962 0.008783 -0.003429 -0.009121 0.006202 -0.002136 -0.008266 -0.005244 -0.002948 -0.000061 0.002293 -0.001865 -0.003628 -0.005765 0.005022 -0.002009 0.003890 -0.007477 0.008666 
无 0.219433 0.137642 -0.270765 0.087771 0.020172 0.071366 -0.130426 0.211263 -0.041423 0.032863 0.097692 0.379774 0.139649 0.043671 -0.065666 0.026542 0.366622 -0.164621 0.024493 -0.000319 0.054338 0.103900 -0.613712 0.049020 0.194339 0.061879 -0.298606 0.183062 -0.163122 -0.590628 0.052253 -0.388364 0.143849 -0.214766 0.003909 -0.063684 -0.100772 0.017523 0.127274 -0.256147 -0.000198 -0.294474 -0.096306 0.470669 -0.452621 0.180613 -0.194322 -0.206128 -0.410019 -0.009316 
常 0.079486 0.127224 -0.478507 -0.344874 0.145253 0.204506 0.243860 -0.135401 -0.281105 -0.104413 0.427612 0.264314 -0.030845 0.226520 -0.092370 0.131018 -0.152409 -0.260949 0.046111 0.014427 0.220649 0.184058 -0.315864 0.051335 -0.017902 0.153029 -0.382271 0.122556 -0.154604 -0.254894 -0.274430 -0.472920 -0.238904 0.318880 -0.154652 -0.075484 -0.183394 0.005371 -0.347562 -0.103898 -0.193103 -0.379524 0.238001 0.223724 0.274921 0.483512 -0.294602 -0.243214 -0.089668 0.221034 
血 0.299234 0.007164 -0.435330 0.083621 0.009532 -0.095644 0.200203 0.107323 -0.158423 -0.120783 0.090605 0.323545 -0.043610 0.432572 0.116556 -0.126535 0.391550 -0.546264 -0.117300 -0.233797 0.084665 -0.294424 -0.247008 -0.115437 0.055810 0.293308 0.092350 -0.072468 -0.130520 -0.152037 -0.042595 -0.136404 -0.185801 0.195481 -0.061289 -0.046693 -0.226029 0.182706 -0.245034 -0.086654 0.259472 -0.008449 -0.232732 0.289510 0.227755 0.269701 0.187134 -0.347103 -0.195699 0.071403 
性 -0.095533 -0.067222 -0.140703 0.128773 0.218588 -0.178781 0.253661 0.040975 -0.008195 -0.082856 -0.155454 0.080127 -0.267406 -0.254354 0.094201 -0.516125 -0.051161 0.057488 0.110829 -0.283675 -0.301842 -0.225764 -0.380019 0.342906 -0.010047 0.493216 -0.410755 0.131451 0.447149 -0.079720 0.291320 -0.378596 -0.439065 0.092836 -0.188651 0.078571 -0.254497 0.096824 -0.138918 0.131438 0.002214 -0.246365 -0.330390 0.367284 -0.526000 0.076973 -0.060376 -0.101708 0.009696 0.103741 
正 0.014038 0.288370 -0.446308 -0.217089 0.320239 0.249277 0.117484 -0.110993 0.013838 -0.018756 0.490582 0.204749 0.067092 0.062855 -0.082480 0.170399 -0.038546 -0.153734 0.273485 0.010912 0.270936 0.223485 -0.326497 0.030679 -0.233121 0.474480 -0.300758 0.022249 -0.314251 -0.347522 -0.244596 -0.334187 -0.385701 0.268812 0.016700 0.016152 -0.089646 0.065001 -0.171115 -0.234126 -0.211264 -0.463679 0.338123 0.111196 0.210234 0.551064 -0.364880 -0.235162 -0.136908 0.137818 
及 -0.051758 0.109084 0.017078 -0.012355 -0.054568 0.114039 0.018066 0.067543 -0.156801 0.182982 0.377028 0.101781 0.020738 -0.154628 0.185704 0.114944 0.163755 -0.113725 -0.162334 -0.347767 -0.106757 -0.202141 -0.122264 0.278086 -0.097646 0.286589 -0.212053 0.245536 0.057321 -0.303126 -0.035836 -0.663753 0.052608 -0.022652 0.091122 0.083264 0.089436 -0.068277 -0.041340 0.122539 -0.092285 -0.006751 -0.219063 0.267306 -0.386813 0.142691 -0.057223 -0.113694 -0.260927 0.069796 
痛 0.163473 0.377304 -0.117544 0.088628 -0.103927 -0.263283 -0.233817 0.281086 -0.201166 -0.197342 0.083166 0.185094 -0.035198 -0.190459 -0.021599 0.003585 0.436826 -0.032794 -0.195873 0.242862 0.008306 -0.026464 -0.293042 -0.004947 0.294554 0.384226 -0.485891 0.368715 0.029664 -0.544454 0.183538 -0.017210 0.165785 -0.002764 0.122791 -0.053413 -0.122410 -0.383922 -0.044818 -0.371526 -0.318216 -0.325955 -0.221439 0.145688 -0.501243 0.119017 -0.217983 -0.352906 -0.214400 -0.163277 
病 -0.164548 0.121373 -0.140709 -0.192014 0.190030 0.087555 0.058156 0.075322 0.026717 -0.358735 0.343835 0.188104 -0.225911 0.139208 -0.126273 -0.077827 0.285500 -0.500960 0.409451 -0.247292 -0.010315 -0.391344 -0.005018 0.434191 -0.435794 0.255795 -0.104859 0.034873 0.515146 -0.063148 0.320651 -0.262607 -0.410156 -0.021850 -0.097247 0.077546 0.002845 0.189982 -0.036034 -0.117545 0.175659 -0.087633 -0.169187 0.186248 -0.412750 -0.343658 0.301216 -0.202590 -0.183255 -0.006656 
查 -0.074292 0.177950 -0.471109 -0.485935 0.034642 0.319373 0.207450 -0.198571 -0.283340 -0.220496 0.222856 -0.080375 -0.157854 -0.263696 -0.004686 -0.022319 -0.048695 -0.500993 -0.032774 0.099753 -0.175713 0.073551 -0.047176 -0.036987 -0.218537 -0.018407 -0.161870 0.188547 -0.254019 -0.219256 -0.048447 -0.246601 -0.213779 -0.210025 -0.090628 -0.057883 -0.454525 0.004672 -0.178472 -0.138972 -0.017810 -0.070639 -0.195717 0.437656 0.321725 0.052184 -0.057693 -0.071545 -0.102853 -0.000587 
未 0.289391 -0.002529 0.161513 -0.225722 -0.112800 0.227665 0.085061 0.121213 -0.317807 -0.016820 0.668201 0.103887 -0.215983 0.050208 0.037212 0.092362 0.034518 -0.397692 -0.090336 -0.367705 0.199578 -0.099853 -0.312639 0.261428 -0.059117 0.015746 -0.416050 0.237698 -0.177746 -0.089404 -0.140103 -0.826309 -0.013985 0.034484 -0.221830 0.069069 -0.064409 -0.202113 0.035637 0.015385 -0.206605 -0.273839 -0.009115 0.302321 -0.166824 0.130588 -0.234128 -0.062689 -0.163915 0.409988 
心 -0.259427 0.327611 -0.391693 -0.226764 0.063798 0.064236 0.137126 0.432989 -0.269572 0.165981 0.054716 0.072300 -0.105496 0.122435 -0.045431 -0.079452 0.104568 -0.028686 -0.017565 -0.218170 0.288483 0.437104 0.011146 0.053535 -0.350235 0.406548 -0.287472 0.235885 0.472108 -0.495687 0.087627 -0.557726 -0.347944 -0.058462 0.011163 -0.050912 -0.342623 0.068373 -0.181215 0.360655 0.108908 -0.089867 -0.317973 0.350238 0.159359 0.294857 -0.188464 -0.651822 -0.287997 0.153028 
音 -0.193123 -0.096470 -0.098004 0.190062 0.036502 0.080034 0.162188 -0.381095 -0.268875 0.506127 0.465930 0.333619 0.075581 -0.234976 0.237852 -0.063355 -0.092160 -0.377900 0.165398 -0.492382 0.339409 -0.147043 -0.359335 0.191632 -0.127392 0.706421 -0.690523 0.247255 -0.414609 -0.248349 -0.333329 -0.338688 -0.284063 -0.362940 -0.055339 0.421193 -0.052911 -0.331559 0.517713 0.641796 -0.074952 -0.338237 -0.191647 0.544970 -0.349717 0.007939 -0.491898 -0.399119 -0.125317 -0.022688 
体 0.227880 0.022552 -0.566247 -0.125556 -0.322172 0.214236 0.080797 -0.029008 0.200271 -0.410826 0.417346 -0.095319 0.264172 -0.218197 0.049373 -0.108809 -0.036708 -0.157827 0.273241 0.034665 -0.055007 -0.101278 -0.081807 -0.154275 -0.025787 0.305146 -0.363732 -0.101217 -0.232305 0.000656 -0.075791 -0.380731 -0.336135 -0.062199 -0.289700 0.130605 -0.353815 0.103264 -0.052035 -0.267890 -0.313642 -0.039100 -0.114258 0.251131 0.317462 0.135160 -0.131276 -0.365584 -0.370091 0.005811 
双 0.234627 0.087163 0.170445 0.276368 -0.009719 0.138316 -0.105478 -0.060073 -0.039928 0.110231 0.554637 0.016815 0.178381 -0.154511 0.021366 -0.032725 0.159934 -0.458326 0.307446 -0.217856 -0.276163 -0.093979 -0.598238 0.012849 0.219117 0.163893 -0.213494 0.489483 -0.138404 -0.117741 -0.009960 -0.208909 -0.223254 -0.213727 -0.444163 0.256809 0.137589 -0.174718 0.053780 -0.003754 -0.221835 -0.161761 -0.024389 0.310430 -0.066625 0.469655 -0.236798 -0.062327 -0.043956 0.151573 
动 -0.012469 0.358670 -0.038380 0.491425 -0.054146 0.339910 0.232186 -0.019126 -0.190043 0.213256 0.358019 -0.187413 0.143646 0.457290 0.325878 0.018009 0.279965 0.022617 0.218728 -0.133070 0.083979 0.464659 -0.238983 0.375055 0.395559 0.493308 -0.200715 0.208506 -0.205609 -0.098634 0.023897 -0.113814 -0.224747 -0.230954 0.060425 0.036596 -0.255663 -0.154922 -0.289826 -0.043334 -0.092182 0.053084 -0.151766 0.199712 0.093137 0.384599 -0.135099 -0.157686 0.368448 -0.735122 
压 0.109428 0.425988 -0.199101 0.091004 -0.330642 -0.394197 -0.330240 0.231889 -0.084464 -0.041647 0.348769 0.162567 0.181901 0.208815 0.121772 -0.215844 0.323070 -0.273915 0.282261 -0.197025 0.155476 -0.181960 0.009600 0.039003 -0.060672 0.622043 -0.127371 -0.035823 -0.231035 -0.482917 0.074112 -0.101840 -0.201301 0.177270 0.191318 0.222203 -0.162822 -0.125513 -0.086929 -0.021245 0.113009 -0.108667 -0.010992 0.000080 -0.169333 0.090299 0.062585 -0.414960 -0.106004 -0.035724 
腹 0.212798 0.356337 0.035559 -0.333282 -0.216293 -0.348982 -0.180048 0.533473 -0.457843 0.086717 0.070510 0.046890 -0.290381 0.177870 -0.232155 0.131029 -0.029453 -0.489314 -0.349309 0.273545 0.323803 -0.274906 -0.405688 -0.255179 -0.107723 0.409663 -0.542836 0.042353 -0.051307 -0.611816 -0.192033 -0.346765 -0.189455 -0.203815 -0.039786 -0.236211 -0.037118 -0.041227 -0.021091 -0.194781 -0.200276 -0.311968 -0.154178 0.033837 -0.313182 -0.136012 -0.371241 -0.387519 -0.133140 0.058124 
患 -0.297559 -0.292324 -0.004288 -0.167847 -0.007375 0.200336 0.105082 -0.156831 0.258051 -0.328889 0.149139 -0.274941 -0.414593 -0.318628 -0.035865 0.129366 0.295354 -0.325682 0.015626 0.299946 -0.119734 -0.055207 0.034800 0.068645 0.084323 0.033685 -0.321957 0.029420 0.003621 -0.279114 0.290275 0.011341 -0.353929 -0.212946 0.272172 -0.336662 -0.047761 0.120881 -0.326133 -0.120043 0.208579 -0.026332 -0.296286 0.185700 -0.061464 -0.405424 0.015128 -0.274715 -0.387244 -0.029484 
侧 0.189438 0.141480 0.317208 0.144291 0.126598 0.235914 -0.470034 0.022892 -0.146749 -0.013713 0.513628 -0.000369 0.128288 0.132457 0.071761 0.032468 0.102156 -0.194077 0.289985 -0.155049 -0.280839 -0.007292 -0.302139 0.165877 0.339847 0.185398 -0.253999 0.198449 -0.136950 0.027809 0.257745 0.059344 -0.315468 -0.279212 -0.357003 0.012856 0.028770 -0.064474 -0.306049 -0.154504 -0.381462 -0.451730 -0.329675 0.099837 -0.052935 0.447261 -0.105482 -0.019328 0.116364 0.405004 
史 -0.235541 -0.011067 -0.137913 -0.291025 -0.288270 0.069458 -0.334249 0.030947 0.030039 -0.722611 0.095960 0.244314 0.240088 0.586787 0.067615 -0.203742 0.144755 -0.164194 0.120699 -0.536115 -0.396041 -0.241633 0.033909 0.468066 -0.316565 0.124333 -0.272821 0.467350 0.128105 -0.228166 0.173193 0.054245 -0.166985 0.103213 -0.173793 0.551691 -0.034869 0.170393 0.468486 -0.612091 0.087302 0.003004 -0.170003 0.476167 -0.029548 -0.620211 0.632894 -0.362752 -0.718140 -0.036203 
者 -0.257371 -0.249603 0.057283 -0.157507 -0.066411 0.102987 0.086166 -0.019617 0.133194 -0.365047 0.222070 -0.248903 -0.431681 -0.260083 -0.128778 0.091327 0.266090 -0.361627 -0.032345 0.302589 -0.086938 0.067880 0.104366 0.109598 0.082174 0.043088 -0.325650 0.041152 -0.006895 -0.255396 0.363323 0.142358 -0.308833 -0.243583 0.294010 -0.301391 0.022934 0.140468 -0.342836 -0.129585 0.198930 -0.025447 -0.237868 0.232395 -0.085046 -0.369719 -0.017688 -0.267530 -0.359067 -0.090966 
诊 -0.333509 0.373980 -0.226426 -0.385641 -0.256084 -0.031403 0.029249 -0.084702 -0.162503 0.161615 -0.108958 -0.021307 -0.447893 -0.060542 0.285726 0.069740 -0.280822 -0.498850 -0.046829 0.000711 -0.348627 -0.095884 -0.146678 0.471800 -0.071162 -0.170328 -0.073783 0.177670 -0.028463 -0.388881 0.146808 -0.452297 -0.344843 -0.474828 0.003248 -0.234447 0.325783 -0.179110 0.040630 0.683201 -0.325010 -0.044612 -0.275844 -0.001017 0.353446 -0.068882 0.396477 -0.523969 -0.150096 0.044913 
大 -0.034762 0.179190 -0.488778 0.028737 -0.043625 0.147096 -0.156376 0.082683 -0.287201 -0.066715 0.225897 0.050416 0.156241 0.033199 0.091976 0.181153 0.122953 0.158262 -0.062845 -0.315064 -0.225639 0.179254 -0.129688 -0.049820 -0.113961 0.141945 -0.454778 0.352047 -0.627222 0.300073 0.057194 -0.205852 -0.023991 0.158592 -0.437574 0.066519 -0.002487 0.546841 -0.286353 -0.253733 0.000281 -0.369746 0.144728 0.156101 0.029675 0.309122 -0.280722 -0.124475 -0.529393 0.007127 
肿 0.441798 0.043324 -0.217466 0.125725 -0.118075 0.062555 -0.030316 -0.127345 -0.049789 0.282754 -0.006585 -0.085476 -0.090922 0.019930 0.126795 0.379719 0.381753 -0.334284 -0.061255 -0.346413 -0.336938 -0.140815 -0.478594 -0.096936 0.296342 0.093238 -0.128326 0.214952 -0.447019 0.015297 0.132503 -0.049719 0.058766 -0.276689 -0.270009 0.004234 0.212548 0.215915 -0.020117 -0.119916 -0.203030 0.081177 -0.012972 0.601816 -0.669225 0.295403 0.123599 -0.206730 0.163370 0.161383 
下 0.208445 0.161773 0.270103 0.101949 -0.104456 -0.020317 0.041547 0.158848 -0.222395 0.223762 -0.032742 -0.200559 -0.132920 -0.118047 0.090134 0.214031 0.092430 -0.673732 -0.103417 -0.107625 -0.149786 0.079864 -0.441145 0.030695 0.127081 0.628837 -0.303079 0.213622 -0.100435 -0.178742 0.025507 0.128743 0.189396 -0.176035 0.165094 -0.006233 0.086862 -0.119700 -0.196006 -0.057207 -0.180476 0.107067 0.026317 0.145834 -0.380314 0.354469 0.066818 -0.204311 0.334733 -0.083352 
分 -0.131905 0.017418 -0.299190 0.003922 -0.590145 0.203526 0.258663 0.172945 -0.015571 0.398989 -0.402827 0.225635 -0.195005 0.016607 0.079180 -0.341670 0.318286 -0.149674 0.331602 -0.312226 0.152689 -0.128622 -0.030071 0.026504 -0.390023 0.449661 -0.284327 0.026346 -0.672713 -0.304713 -0.181607 -0.541919 -0.113888 -0.271481 -0.281577 0.244094 -0.376403 -0.051988 -0.050766 -0.131148 0.029899 0.248092 0.167330 0.258371 0.511100 0.489113 0.064889 -0.294762 -0.279771 0.270569 
见 0.382252 -0.114377 0.094524 -0.204113 -0.162271 0.513124 -0.123070 0.243332 -0.430842 0.084864 0.344626 -0.041133 -0.271884 0.400283 0.126836 0.104413 -0.042261 -0.199379 -0.270489 -0.141252 -0.086939 -0.158896 -0.118495 0.364639 0.119104 -0.046682 -0.656636 -0.067246 -0.260939 -0.022947 -0.056057 -0.362896 -0.044188 -0.106443 -0.430229 -0.221970 -0.053228 0.005585 -0.306651 0.179201 -0.368640 -0.279710 -0.100258 0.126936 0.156425 0.157422 -0.143219 0.161554 0.026598 0.349184 
后 -0.104686 -0.071469 -0.023803 -0.145819 -0.080070 0.465533 0.016220 -0.098209 -0.112330 -0.282284 0.030492 0.464694 -0.030082 -0.049222 0.049946 0.055001 0.222968 -0.250712 -0.380440 0.258213 -0.131851 0.095680 -0.138207 0.231619 -0.045824 0.123125 -0.088628 -0.070340 -0.284527 0.091428 0.182394 0.159044 -0.489163 -0.307641 0.291274 -0.327503 -0.285629 0.053822 -0.208942 -0.251832 0.040146 0.117080 -0.300014 0.268646 0.183839 -0.199503 0.074922 -0.013016 -0.202738 0.028909 
不 0.020551 -0.155167 -0.053555 -0.101103 -0.302430 -0.204659 0.244044 0.135096 0.158843 -0.093028 0.444584 -0.107079 -0.250079 0.158337 0.083022 0.154455 0.163108 0.037862 -0.204141 -0.011587 0.007474 0.346912 -0.282123 0.241364 -0.182860 0.165848 -0.000348 0.252048 -0.301280 -0.057005 0.120220 -0.372448 0.291310 -0.137349 0.109727 -0.027050 -0.010824 -0.046862 -0.345192 -0.042748 -0.357909 -0.378271 -0.587553 0.075225 0.207611 0.031785 0.054297 -0.481983 -0.445107 -0.299280 
发 -0.066598 -0.208080 -0.185997 -0.155884 0.186316 -0.045934 -0.075160 0.249841 0.072811 -0.128967 -0.224384 0.018385 -0.443513 -0.047662 -0.091925 -0.142997 0.147000 0.082579 0.297181 -0.164420 -0.252361 0.195148 -0.614405 -0.018746 -0.027388 -0.030244 -0.460359 -0.168066 -0.114229 -0.027075 0.363772 0.275871 -0.292121 -0.094746 -0.186432 0.032612 -0.237639 -0.133289 -0.193951 -0.169006 -0.092239 -0.165473 -0.531861 -0.004373 -0.334547 -0.159144 0.012338 -0.113797 -0.507383 -0.409899 
反 0.274051 0.184881 -0.329748 -0.414365 0.192558 -0.374377 -0.037501 -0.305293 0.104781 -0.803139 0.510669 0.664209 -0.429985 -0.435041 0.148274 0.129701 0.355300 -0.296550 0.025584 -0.289026 0.765798 -0.199251 -0.393645 0.395174 0.161104 0.475754 -0.239349 -0.249235 0.070110 -0.216284 -0.184389 -0.049344 -0.135185 0.013772 -0.194091 0.154542 -0.124081 -0.477291 -0.073600 -0.192079 -0.071150 -0.358388 -0.300843 -0.393128 -0.574459 0.243091 -0.229634 -0.156638 -0.005257 -0.048608 
部 0.109224 0.466693 0.005626 -0.196921 -0.418086 -0.143606 -0.068246 0.212212 -0.051585 0.075292 -0.106056 -0.010821 0.320790 -0.115677 0.090101 0.401775 0.326938 -0.176347 -0.361145 -0.003398 -0.167233 -0.081562 -0.285655 -0.201342 0.210492 0.438652 -0.430967 0.189516 -0.330333 -0.054203 0.139684 -0.223629 -0.304775 -0.275397 -0.200743 -0.082820 -0.163960 -0.270555 -0.147478 0.250966 -0.322038 -0.312048 -0.436269 0.123089 -0.152262 0.284394 -0.031960 0.057411 0.046515 -0.088807 
院 -0.125712 0.060655 -0.515162 -0.370344 -0.227620 0.032317 -0.160379 -0.285933 -0.083434 -0.318555 0.134514 0.208183 -0.399590 -0.017038 0.087927 -0.190864 -0.218106 -0.833556 -0.228386 0.191519 0.041887 -0.028114 -0.429196 -0.030115 -0.226821 -0.331446 -0.266587 0.126177 -0.374344 0.062135 0.151455 -0.068180 -0.476848 -0.125413 0.355238 -0.206421 -0.195126 -0.290941 0.324014 -0.108876 0.007542 0.232001 -0.408314 0.105470 0.270475 0.108646 0.205223 -0.249744 0.015216 -0.009929 
可 -0.107379 -0.007607 -0.179949 0.116201 -0.148784 0.249094 0.116561 0.467738 -0.162177 -0.014239 0.320998 -0.230100 -0.157190 0.007136 0.126319 0.481735 -0.042640 -0.091959 -0.191879 0.110853 -0.422279 0.125818 0.216365 -0.014274 -0.093407 0.354027 -0.165456 0.104034 -0.389389 0.190978 -0.093684 -0.227727 -0.052464 0.082084 0.051492 0.065153 0.099245 0.176592 -0.218700 -0.152298 -0.026362 -0.207263 -0.118773 0.028909 -0.101121 0.192450 -0.263900 -0.068774 -0.511163 -0.162867 
检 -0.112609 0.252465 -0.670812 -0.519571 0.083565 0.355961 0.168730 -0.368315 -0.444901 0.070112 0.061488 -0.067377 -0.229192 -0.086297 0.010280 -0.047079 -0.105380 -0.635277 -0.014954 0.290213 -0.553406 -0.052260 -0.189393 0.296610 -0.418013 0.073222 0.019170 0.353374 -0.101802 0.058897 -0.257969 -0.207107 -0.036404 0.000322 -0.024690 0.198930 -0.599460 -0.204420 -0.121856 -0.034192 -0.208949 0.061169 -0.265413 0.392920 0.086625 0.089495 -0.002703 0.015869 0.116529 0.315562 
肺 -0.273210 0.134612 -0.017553 -0.334390 -0.116777 -0.270477 0.473929 0.065055 0.074380 0.280263 0.280348 -0.300994 0.171032 0.029459 0.298909 0.240217 -0.178010 -0.212242 0.145825 -0.201865 -0.341673 -0.326841 -0.053432 -0.425451 0.375516 0.200150 -0.495971 0.191036 0.033695 0.158360 0.093677 -0.534390 -0.805103 -0.256228 -0.302451 0.135443 0.054663 -0.077045 0.116336 0.359205 0.132121 -0.352684 -0.050318 0.158421 0.180425 0.208904 -0.258947 -0.472551 -0.268257 0.375030 
治 0.003776 -0.286853 -0.086716 -0.359692 -0.186588 0.173146 -0.089447 -0.237541 0.205584 -0.330575 0.253508 0.253313 -0.076188 -0.296094 -0.300616 0.258702 0.416896 -0.039459 -0.107548 0.108711 -0.464251 -0.034288 -0.026031 0.414108 0.196654 -0.003473 0.213231 0.186317 -0.022402 -0.428007 0.148602 -0.105233 -0.502154 -0.416918 0.567498 -0.494824 -0.275273 -0.048242 0.029309 0.223171 0.461875 0.236079 -0.040585 0.014320 0.002613 -0.147923 0.206643 -0.234890 -0.224990 -0.163797 
尿 0.243844 0.073125 0.034358 0.000246 0.047892 -0.319748 0.263885 0.114166 -0.934538 -0.754238 -0.054505 0.555396 -0.430300 0.267154 -0.720504 -0.130712 0.072308 -0.268523 0.230047 0.050877 -0.213999 -0.232569 -0.228277 0.099217 0.091864 0.037530 -0.121110 0.177332 0.319160 -0.203130 0.183683 0.015246 -0.074258 0.108821 0.276448 0.341889 -0.253764 0.612534 -0.359466 -0.034549 -0.103939 -0.104859 0.052183 0.225865 0.167272 0.176214 0.121600 -0.618797 -0.227878 0.363108 
前 -0.321649 0.221730 -0.103040 0.224066 -0.204689 0.169350 -0.196441 0.191900 0.078028 -0.213775 0.333516 -0.267487 0.152080 -0.065420 -0.055838 0.361760 0.221821 -0.230711 -0.260328 0.284515 -0.300654 0.414766 -0.186680 0.449144 0.041179 0.071486 -0.558085 0.119173 0.057162 0.004839 -0.089938 -0.182116 -0.274566 -0.061405 -0.158197 -0.611622 -0.104940 0.184839 -0.286562 0.167851 0.255188 0.443349 -0.131956 0.118201 -0.224297 -0.261865 0.089144 -0.406722 -0.258559 0.091906 
出 -0.016879 -0.067841 -0.217565 0.132421 -0.121298 0.170463 0.069278 0.094613 0.223152 -0.216021 0.234475 0.342899 -0.494923 0.071768 -0.138492 0.259928 0.212148 -0.637334 0.056229 0.094324 0.126874 -0.306168 -0.269797 0.370157 0.080774 -0.129550 0.083936 -0.051968 -0.324106 0.134735 -0.050136 0.097253 -0.188427 -0.129593 0.263977 -0.341724 0.136152 -0.231987 -0.022841 -0.457887 -0.104751 -0.101156 -0.484528 -0.170831 -0.115238 -0.051863 0.013239 0.194167 -0.257524 0.317719 
等 0.070573 -0.116094 -0.263167 -0.448589 0.112719 -0.134583 0.141001 -0.081953 0.267927 -0.101107 0.248960 0.249083 -0.085642 0.221948 -0.285307 0.180393 0.473032 0.198058 0.131054 0.028819 -0.197583 -0.033362 -0.224001 0.048282 -0.172600 0.138387 0.294655 0.418681 -0.112387 -0.032939 0.315176 -0.275366 -0.326826 0.155153 0.196546 -0.029505 -0.229080 0.181625 -0.012306 -0.052982 0.299365 -0.390686 -0.327532 -0.003626 0.050779 0.172591 -0.274505 -0.183118 -0.463856 -0.128459 
中 -0.135812 0.130605 0.099289 -0.140436 -0.120957 0.014579 -0.246236 -0.060613 -0.169885 -0.076851 -0.214690 -0.009863 0.273721 0.036271 0.188220 -0.179926 0.230799 0.059408 0.177611 -0.566273 -0.333483 -0.263581 -0.089960 0.517426 0.168427 -0.018050 0.062077 0.150890 -0.155380 0.191037 0.354998 0.144614 -0.270621 -0.218833 0.120234 -0.330836 -0.136585 0.053999 -0.047837 -0.126937 0.078478 0.082555 -0.168406 0.151590 0.200059 0.224094 -0.032183 -0.128673 -0.149428 0.105573 
术 -0.077652 -0.271749 0.415930 -0.252103 -0.261523 0.435698 -0.384119 -0.075044 -0.098788 0.038303 0.192667 0.416021 -0.120227 0.209052 -0.322025 0.125458 0.171737 -0.281887 -0.597385 0.142968 -0.343588 0.043206 -0.038373 0.345349 -0.268309 0.472763 -0.029928 0.023711 0.080258 0.197625 0.210947 0.161404 -0.265427 -0.650601 0.186427 -0.124799 -0.181018 0.155959 -0.039042 -0.150058 0.083688 0.088341 -0.285033 0.673845 0.254805 -0.507944 -0.134414 0.062705 -0.254961 0.402333 
次 -0.301006 0.080628 -0.357101 0.195825 -0.533559 0.003151 -0.094356 0.101008 -0.348728 0.401050 -0.005431 -0.002238 -0.253876 -0.201544 0.163320 -0.231921 0.065065 -0.231303 0.341118 -0.274871 0.221710 -0.048398 -0.202748 -0.044113 -0.628326 0.622995 -0.395294 -0.097838 -0.457377 -0.423457 -0.158395 -0.269935 0.085712 -0.298397 -0.128379 0.395114 -0.424010 -0.084784 0.200284 -0.191481 0.228753 0.334534 -0.040838 0.020306 0.658630 0.366912 0.143145 -0.177204 -0.458044 -0.398540 
膜 -0.006095 0.186686 -0.115511 0.263672 0.237273 0.089392 -0.098447 0.256175 0.127593 0.497966 -0.019750 0.275205 -0.137897 0.236048 -0.504607 -0.204115 0.056203 -0.208274 0.079461 -0.725015 -0.102422 0.059487 -0.462399 0.799383 -0.281899 0.026345 -0.148355 0.167149 -0.242314 -0.226565 -0.253311 -0.273980 -0.418850 -0.246515 -0.284585 -0.024830 0.115573 -0.075512 0.083523 0.278304 0.210542 -0.184431 -0.198901 0.070711 -0.485335 0.232627 -0.159214 0.516110 -0.326238 0.580408 
有 -0.299141 -0.392250 -0.146630 0.216447 -0.158257 -0.107839 -0.072115 0.301211 0.174176 -0.233904 0.165789 0.154885 -0.153805 0.034483 -0.015910 0.314169 0.158598 -0.056351 -0.076941 -0.204776 -0.099153 0.242155 -0.229617 0.114135 0.093605 0.292844 -0.294497 0.224798 0.071004 -0.156286 0.164096 -0.172539 0.068375 0.175054 -0.155302 -0.221902 -0.057239 -0.015283 -0.169229 0.011199 0.022652 -0.181550 -0.479797 -0.100429 -0.360051 -0.024374 0.401084 -0.232044 -0.482673 -0.076778 
结 0.090550 -0.059147 0.082751 -0.432870 0.429232 -0.013123 -0.141210 -0.162627 -0.277754 -0.028104 0.473915 -0.013648 -0.224625 -0.039267 -0.339580 -0.158348 -0.020340 -0.100188 0.064660 -0.153196 -0.645649 -0.357329 -0.252273 -0.093176 -0.215464 0.067986 -0.300268 0.512623 -0.273539 0.229643 -0.104039 -0.306921 -0.337346 -0.247132 -0.105661 0.062418 -0.133090 0.635711 -0.203489 0.206960 -0.318768 -0.068070 -0.228135 0.146675 -0.560038 0.110065 0.766404 0.032769 -0.356840 0.119005 
明 0.083410 -0.210632 -0.116659 -0.116176 -0.425718 0.423010 -0.028712 0.343469 -0.458506 -0.185305 0.380720 -0.083545 -0.264718 0.232952 -0.046514 0.356728 0.068043 -0.281281 -0.186713 0.257719 -0.074710 0.084226 0.002016 0.130786 0.423488 -0.245883 -0.644836 0.266560 0.160123 -0.075385 -0.210974 -0.474477 0.013415 0.113901 -0.387666 -0.431939 -0.186484 -0.210178 -0.094442 -0.018018 -0.149137 -0.115795 -0.196674 0.419195 -0.022782 0.153873 0.021311 -0.258103 -0.064813 0.128237 
肝 0.280847 0.137536 0.166098 -0.666853 0.000236 -0.331287 0.289317 -0.060070 -0.438309 -0.095338 0.271597 -0.134898 -0.020299 0.326468 -0.031075 -0.235924 0.366062 -0.411505 -0.731328 -0.464716 0.070567 -0.133994 -0.155996 0.163808 0.183357 0.577784 0.018855 0.154263 0.142634 -0.086100 0.210765 -0.595135 -0.437792 0.473800 0.209146 0.280814 -0.135151 0.053107 -0.046404 0.270957 -0.232309 -0.166175 0.141883 0.258754 -0.588079 0.415799 0.209662 -0.621774 0.014353 0.123096 
脉 0.447411 0.123191 -0.022935 0.131982 -0.325846 0.381073 -0.067205 0.383321 -0.600856 0.152032 0.428179 -0.411531 -0.121138 0.581642 0.409558 -0.146256 -0.011605 -0.378705 0.261682 -0.480750 -0.001318 -0.092415 -0.028333 0.278003 0.359717 0.344957 -0.289851 -0.327874 -0.287328 -0.235330 0.098068 -0.706861 -0.263383 -0.485130 0.110113 0.203760 -0.242422 0.246929 0.174817 -0.071245 0.055984 0.287864 -0.032494 0.183038 0.380938 0.561355 0.010143 0.222331 0.534493 -0.646772 
吸 -0.235298 -0.137451 -0.125958 0.110673 -0.195733 -0.166881 0.321992 0.071176 0.142544 0.235931 0.296514 0.012122 0.103636 0.058635 0.225902 -0.050107 0.090036 -0.265341 0.270949 -0.174537 -0.379405 -0.449808 -0.301469 -0.113828 0.194201 0.227679 -0.343252 -0.547961 0.040653 0.077776 -0.221647 -0.608280 -0.126934 -0.104200 0.152038 0.357176 -0.195268 -0.202322 0.422333 0.285182 0.188375 0.202625 -0.201792 0.277162 0.523899 0.424616 -0.321373 -0.617339 -0.770033 0.247582 
异 0.256173 0.012589 -0.230933 -0.485465 -0.147120 0.290590 0.072280 0.177779 -0.404611 -0.101630 0.464199 0.185391 -0.039802 0.480532 0.135541 0.196177 -0.175728 -0.258139 -0.176670 0.042511 0.051621 0.228225 -0.087061 0.148974 0.127765 -0.107557 -0.550356 0.185047 0.014443 -0.191231 -0.226373 -0.703249 -0.169674 -0.066337 -0.472986 -0.084088 -0.408706 -0.222612 -0.243333 0.033200 -0.372892 -0.260160 0.284905 0.233064 0.302171 0.250931 -0.201593 -0.044191 -0.139948 0.300155 
肌 -0.094103 -0.197399 -0.332109 -0.383497 0.129229 -0.034403 -0.297302 0.104110 -0.315552 0.147198 0.493790 0.120034 0.134900 -0.151866 0.300938 0.195909 0.157608 -0.374130 0.182991 -0.247809 0.182092 0.465340 -0.232335 0.299069 0.093037 0.816509 0.042732 0.016443 0.282626 -0.051563 -0.345638 -0.182389 -0.639700 0.324757 0.504302 0.063379 0.281381 -0.149583 -0.375261 -0.101509 -0.330418 -0.004011 0.331611 -0.064119 -0.657527 0.842373 -0.049734 0.075242 0.171595 0.468171 
颈 0.201720 0.299063 -0.374865 -0.045674 -0.187276 0.227298 -0.575949 0.119339 -0.390575 -0.004206 0.034864 -0.192722 0.081616 0.240658 0.280669 -0.184304 0.350246 -0.195380 -0.000548 0.054691 -0.097932 0.080092 -0.080003 0.245905 0.394438 0.415958 0.260469 0.286668 0.020907 0.316670 0.144828 -0.486573 -0.534396 -0.275667 -0.271656 -0.224690 -0.201034 -0.099662 0.332751 -0.208461 -0.320198 -0.185676 -0.185350 -0.067330 -0.162975 0.431753 -0.110263 0.179335 0.060670 -0.129172 
肢 0.167037 0.059484 -0.303893 0.195614 0.023983 0.101032 -0.305234 -0.334260 0.100355 0.249382 0.339311 -0.255788 -0.090334 -0.262715 0.024574 0.443963 0.073805 -0.742633 0.266832 0.286711 0.075152 -0.147860 -0.635462 -0.088293 0.546648 0.735163 -0.182089 0.226544 0.441855 -0.012728 -0.146353 0.072393 0.219354 -0.388040 0.366892 0.130718 0.288763 -0.042800 -0.153518 -0.207377 -0.325641 0.100824 0.057714 0.255564 -0.315065 0.586441 -0.045748 -0.643594 0.385110 -0.260708 
疗 0.154207 -0.419729 -0.084946 -0.334407 -0.301593 -0.061076 -0.259433 -0.380921 0.224005 -0.224164 0.243038 0.116548 -0.100861 -0.144531 -0.432726 0.367953 0.486228 0.021188 -0.128475 0.176733 -0.396364 -0.021217 -0.051277 0.306744 -0.079292 0.000434 0.275669 0.304949 0.042315 -0.236799 0.156014 -0.046802 -0.507545 -0.399140 0.647994 -0.353849 -0.228047 -0.191173 0.054846 0.205618 0.553906 0.166580 -0.063670 -0.019119 0.015594 -0.148021 0.170777 -0.372415 -0.192787 -0.061665 
物 0.258321 -0.148562 -0.195795 0.211960 -0.729926 -0.081638 -0.123128 -0.067195 0.176516 0.183410 -0.286653 0.474986 -0.053765 0.255951 -0.219355 0.454165 0.273941 -0.039968 -0.220259 -0.303982 -0.295708 0.063432 0.254386 0.634205 0.064210 -0.252099 0.116023 0.233863 -0.128036 -0.198379 0.238945 -0.392644 0.155586 -0.268547 -0.180802 0.055937 -0.119507 0.195047 -0.152349 -0.322771 -0.048554 0.000529 -0.095326 0.213148 0.145818 0.200512 0.343289 -0.049067 -0.695897 0.632246 
右 0.026066 0.117166 0.352945 -0.066008 0.066649 0.126017 -0.424846 0.172765 -0.053681 -0.154802 0.379408 -0.067734 0.127849 -0.113907 0.004315 0.118093 0.104198 -0.310070 -0.049620 -0.052449 -0.274764 0.187275 -0.410665 -0.021498 0.234004 0.253685 -0.431763 0.328152 -0.243049 -0.123110 0.441187 0.087490 -0.211250 -0.271362 -0.172282 -0.037937 0.261715 -0.084986 -0.422594 -0.039003 -0.292936 -0.148120 -0.420709 0.126791 -0.245473 0.340633 0.206632 -0.149535 0.251929 0.192145 
神 -0.323542 -0.019645 -0.434009 -0.383294 -0.237160 0.283086 -0.100813 0.157023 0.036918 -0.254937 0.479870 -0.225321 -0.240072 0.130098 -0.239492 0.104536 0.015594 0.069766 0.747261 0.223115 -0.011836 -0.079911 0.271129 0.040387 -0.091791 0.263784 -0.134771 -0.194884 -0.085039 -0.576676 0.046479 -0.179249 -0.144579 -0.399784 0.438821 0.076891 0.213715 0.147584 0.229986 -0.162494 -0.045024 -0.424465 0.062346 0.280477 0.146950 0.665168 -0.498995 -0.096312 -0.751753 -0.228377 
区 0.021535 0.362086 0.021160 -0.037023 0.264107 0.155884 -0.078646 0.230341 -0.314202 -0.117699 0.695916 0.143336 -0.449788 -0.028627 0.383077 -0.720683 -0.034746 -0.279448 0.175439 -0.152307 0.698211 0.247892 -0.343780 0.473488 -0.043720 -0.137124 -0.758887 0.966137 -0.256234 -0.479231 0.311541 -0.478451 -0.202934 -0.504878 -0.040076 0.293793 0.183990 -0.135677 0.211352 0.141999 -0.312817 0.574190 -0.236402 0.080026 -0.605028 0.161911 -0.279875 -0.218769 -0.115500 1.014430 
胸 -0.393060 0.425718 -0.113261 -0.420692 0.311269 -0.405893 -0.033788 0.723299 -0.418642 0.460573 0.181654 0.008802 0.047067 0.121598 0.131121 0.389770 0.376441 -0.120298 -0.063646 0.169291 -0.305687 0.255072 -0.483976 -0.140182 0.375960 -0.112117 -0.322560 0.508590 0.366599 0.415280 0.131579 -0.278185 -0.156124 -0.223791 0.013175 -0.168988 -0.393461 -0.455808 0.206914 0.226927 0.420899 -0.370741 -0.174868 0.051208 0.179642 0.382091 -0.043968 -0.301928 -0.233241 0.287953 
射 0.274830 0.052892 -0.142497 -0.335709 0.098329 -0.077052 -0.202216 -0.556198 0.415235 -0.572736 0.662142 0.620036 -0.576436 -0.423476 0.135049 0.768551 0.335176 -0.172333 0.100174 -0.326523 0.478802 -0.438969 -0.394814 0.990388 -0.015542 0.285869 0.295502 -0.218116 0.289320 0.203473 0.085078 -0.081255 -0.172646 0.126022 0.075922 0.497040 -0.226524 -0.630034 -0.071000 -0.353958 -0.102665 -0.147664 0.134945 -0.136423 -0.406301 0.749975 -0.637428 0.223497 0.029833 -0.004423 
管 0.394194 0.096303 0.727314 -0.308602 0.031734 0.170692 0.040292 0.169849 -0.394930 -0.182768 -0.049568 0.203165 0.066553 0.608608 0.208441 -0.143340 0.102224 -0.209235 0.352255 0.013662 -0.667511 -0.111138 -0.189407 0.249654 -0.064626 0.314653 -0.290335 0.134088 0.080324 0.088157 0.115385 -0.258416 -0.132528 -0.395595 0.219984 0.262850 0.078571 0.177242 0.010462 -0.072217 0.352097 -0.233521 -0.533805 0.227792 -0.063120 0.277080 -0.153158 -0.192094 -0.072619 0.445865 
头 -0.261590 -0.039909 -0.687947 -0.201070 0.329682 0.009515 -0.616746 0.291477 0.263338 0.243023 -0.230342 0.095865 -0.049753 -0.072653 -0.371982 0.257531 0.215505 -0.151906 -0.093549 0.172844 -0.066497 0.318238 0.156687 0.001796 0.441167 0.052593 -0.309963 0.219362 0.143131 -0.205633 0.273486 0.019082 -0.109555 -0.337030 -0.075067 -0.136114 -0.457782 -0.101913 -0.007185 -0.478001 -0.220236 -0.154210 -0.403474 -0.198365 -0.260036 0.318378 -0.199181 -0.423169 -0.028046 -0.363834 
显 0.192835 -0.286685 -0.082046 -0.037840 -0.376273 0.455164 0.032133 0.420394 -0.431298 -0.267962 0.523010 0.046944 -0.168260 0.245693 -0.013139 0.309170 0.215383 -0.224103 -0.109103 0.169968 0.129298 0.170430 -0.099824 0.061570 0.512405 -0.204966 -0.771924 0.280300 0.191640 -0.039378 -0.233078 -0.551259 -0.008630 0.119164 -0.412397 -0.377315 -0.225412 -0.285096 -0.107389 -0.021225 -0.241713 -0.163889 -0.044609 0.363919 -0.075151 0.190557 -0.093802 -0.102763 -0.150600 0.253425 
左 0.007128 0.027731 0.318081 0.158289 0.155369 0.158161 -0.377418 0.233754 -0.073766 -0.154273 0.388157 -0.066342 0.169014 -0.085241 0.025696 0.078239 0.160425 -0.235598 0.030745 -0.130241 -0.415654 0.336332 -0.423323 0.068684 0.238225 0.179556 -0.443501 0.207191 -0.238505 -0.114232 0.323507 0.119429 -0.385073 -0.325624 -0.033495 0.014469 0.143030 0.006727 -0.274684 0.064122 -0.294740 -0.062914 -0.317084 0.024100 -0.032943 0.436038 0.187815 -0.104021 0.407843 0.226540 
对 -0.067767 -0.002991 0.186256 -0.405698 0.069240 0.088740 -0.125975 -0.360359 0.423577 0.193413 0.278168 0.623155 0.024220 -0.026146 0.046776 0.518187 0.709285 0.367584 0.296904 -0.050458 -0.178884 0.017490 -0.190714 0.294619 0.256709 0.411964 0.156228 -0.007538 -0.137277 0.099230 -0.166606 -0.433690 -0.468841 0.067828 0.306122 -0.305701 0.047645 -0.096925 0.034126 0.134632 0.544275 -0.108748 -0.086386 0.062752 0.194654 0.464248 -0.029435 -0.368708 -0.282749 -0.035202 
状 0.130904 -0.367692 -0.203376 -0.128083 0.007474 0.376702 0.030746 0.033082 -0.254614 0.228722 0.288614 -0.541296 -0.066534 0.003396 -0.093198 0.183340 0.625253 0.159028 0.078191 0.005854 -0.392451 0.344057 0.028190 0.122949 0.393634 -0.012729 -0.166509 -0.001297 0.133208 0.552253 0.087217 -0.488457 -0.266005 -0.106490 0.189306 -0.530063 0.034173 0.416622 0.134748 -0.459201 0.112439 -0.299382 -0.166978 0.243698 -0.348512 0.188997 0.322131 -0.294242 -0.275683 -0.041695 
症 0.283808 -0.442783 -0.287605 -0.260799 0.013560 0.088770 -0.201227 -0.135189 0.285093 -0.108321 0.170118 -0.009450 -0.212833 0.228056 -0.244926 0.145421 0.805408 0.032208 0.202718 0.124956 -0.335644 -0.078325 -0.057979 -0.087071 0.136522 0.156557 -0.173597 0.014706 0.328222 0.205556 0.042414 0.061576 -0.568112 0.139020 0.476494 -0.523221 -0.089555 -0.044175 0.132647 0.095682 0.007016 -0.294529 -0.112598 -0.175930 -0.304374 -0.206095 0.467546 -0.116756 -0.308023 0.061627 
宫 0.093989 0.053628 0.052883 -0.015320 0.027234 0.137330 -0.331710 -0.369898 -0.670210 0.323117 -0.089406 0.241639 -0.134377 0.558188 0.271951 0.128412 -0.347778 -0.405809 -0.704261 0.215224 0.004437 0.470506 -0.054472 0.552566 -0.102989 0.361849 -0.084427 -0.275807 -0.207539 0.526661 0.123046 0.110489 -0.432598 -0.330265 0.006026 -0.406128 -0.696232 -0.279708 0.060428 -0.116450 -0.075039 0.188821 0.060024 0.197924 -0.283079 0.347891 -0.435880 0.256502 -0.584418 0.452881 
清 -0.198294 -0.060943 0.076227 0.009113 -0.196399 0.098051 0.086426 0.253514 0.188826 0.165112 0.190818 -0.206512 -0.085859 -0.068613 -0.252067 -0.212887 0.055857 -0.198484 0.178388 -0.027165 -0.032969 -0.253481 0.023265 0.108883 0.006070 0.241467 -0.051803 -0.119669 -0.253465 -0.057569 0.032364 -0.785682 -0.262833 -0.631270 -0.111549 0.329216 0.130301 0.244504 0.136904 0.300605 -0.100233 -0.042625 0.007602 0.406347 0.402931 0.550393 -0.707073 -0.078741 -0.863488 0.131307 
阴 0.358282 -0.476562 0.132120 -0.005032 0.651632 -0.314140 0.331303 -0.127104 -0.204692 -0.195366 -0.563265 0.266556 -0.112208 0.092725 0.285185 -0.052362 -0.241563 -0.334031 -0.390198 0.009436 -0.025620 -0.335980 -0.070806 0.340053 0.259154 0.427760 -0.337155 -0.295016 -0.294412 -0.485352 -0.081339 -0.609184 -0.119857 -0.282085 0.126097 0.126820 -0.143999 -0.356249 0.071779 -0.478114 -0.430232 -0.113265 0.017567 0.268699 -0.220664 -0.052269 -0.442323 -0.583836 -0.114455 0.256025 
小 0.163001 0.006206 -0.576872 0.113557 -0.227850 0.010900 -0.171475 -0.120443 -0.246896 0.140090 0.185028 0.047229 0.041862 0.203241 0.110664 0.184401 -0.105748 0.013830 0.011299 0.008459 0.013831 0.252698 0.016899 -0.374144 0.007315 0.226325 -0.378692 0.474174 -0.813248 0.034787 0.404309 -0.063761 -0.270756 0.328918 -0.154073 0.094507 -0.143776 0.433060 -0.431817 -0.433781 0.084486 -0.001984 0.105811 -0.061227 0.227538 0.308686 -0.507730 -0.149098 -0.343513 -0.084501 
呼 -0.149293 -0.146946 -0.376984 0.272763 -0.174184 -0.347994 0.318230 -0.100732 -0.023530 0.191234 0.278779 -0.276147 0.000129 -0.060820 -0.037116 -0.207420 0.018384 -0.062386 0.370944 -0.091625 -0.291747 -0.475873 -0.347366 -0.047452 0.375100 0.321467 -0.435201 -0.477428 0.036281 0.022285 -0.188758 -0.583538 -0.003916 -0.190291 0.057583 0.334507 -0.185810 -0.240232 0.552062 0.227301 0.107074 0.045225 -0.161423 0.148271 0.794847 0.504830 -0.505450 -0.759812 -0.635448 0.271680 
年 -0.347465 -0.312161 -0.203871 0.079695 -0.229875 -0.431870 -0.480866 -0.365939 -0.279423 -0.538854 0.230731 0.061365 -0.291828 -0.321162 -0.042475 -0.441415 -0.235773 -0.534420 0.140087 -0.131868 0.056464 0.207763 -0.466201 0.423939 -0.147111 0.244359 -0.356019 0.310860 0.148749 -0.048582 0.660753 0.334532 -0.276881 -0.166858 -0.380540 -0.249848 -0.483006 -0.014347 0.087506 -0.671530 0.106093 -0.085456 -0.264525 0.025654 0.004403 -0.115446 0.456026 -0.373550 0.035835 -0.014654 
口 0.012652 0.238294 0.299787 0.198600 -0.114438 0.249026 -0.294107 0.362988 0.029440 0.217360 0.229562 0.376809 -0.023300 -0.264683 -0.021772 0.144791 0.179534 0.006957 -0.630056 -0.138591 -0.355457 -0.237143 -0.241290 0.027426 -0.058197 0.557831 -0.076385 -0.117356 -0.357384 -0.269859 0.196922 -0.234262 -0.036031 -0.242481 -0.114190 -0.491274 -0.116128 -0.067108 -0.018714 -0.302263 0.107835 -0.016057 -0.035732 0.002920 0.294964 0.351447 0.205128 -0.105503 -0.879834 -0.198211 
示 -0.196117 0.033955 0.025247 -0.542057 0.239959 0.477226 0.109935 -0.179440 -0.417769 -0.239037 0.270522 -0.075006 -0.081751 -0.084859 0.094249 0.069378 0.218477 -0.474607 0.079799 -0.021674 -0.170566 0.042617 -0.182732 0.014436 0.010483 -0.078555 -0.317921 0.446515 -0.141137 -0.209037 -0.053912 0.157136 -0.808891 -0.197099 0.027603 -0.242315 -0.483122 0.182908 -0.345998 0.069427 0.174831 -0.255625 -0.235725 -0.216338 0.004561 0.013759 0.166950 0.173833 0.382539 0.384358 
力 -0.058606 -0.242618 -0.582234 0.080183 0.155936 -0.148619 -0.360359 0.017724 0.264855 0.024993 0.694415 0.082868 -0.328117 -0.307523 0.014131 0.486249 -0.043566 -0.486490 0.522029 -0.126927 0.468394 0.402950 -0.094224 0.404183 0.406708 0.798257 -0.097565 -0.217388 0.662461 -0.035716 -0.447807 -0.081991 -0.019959 0.029644 0.431420 0.004157 0.376390 -0.193539 -0.131419 -0.023982 -0.223685 -0.090062 -0.152052 0.121757 -0.171813 0.679075 0.107101 -0.494643 -0.109536 -0.049892 
生 0.120484 -0.413216 -0.347122 0.408748 -0.217910 0.015262 0.105620 -0.446846 0.230187 0.039295 0.426940 -0.096785 -0.190313 -0.110600 -0.023921 0.184127 0.261579 -0.340087 -0.165047 -0.139120 -0.108097 -0.192247 -0.500904 0.603987 -0.266787 -0.036278 0.050705 -0.146801 -0.232779 0.336410 -0.353694 -0.369740 -0.503185 0.115658 -0.029779 0.048441 0.248395 -0.121344 -0.375573 -0.478420 -0.307456 -0.496497 0.202464 -0.096550 0.071394 -0.093208 -0.331646 -0.018489 -0.198553 -0.006461 
入 -0.041817 -0.149104 -0.544474 -0.233957 -0.314401 -0.053057 -0.159904 -0.263807 -0.004383 -0.536068 0.002646 0.131619 -0.159580 -0.062269 0.095153 -0.432099 -0.200696 -0.571880 -0.069219 0.294288 -0.088568 0.167009 -0.307702 -0.184129 -0.250618 0.121008 -0.455723 -0.169145 -0.320863 0.052053 0.291587 0.009738 -0.419729 -0.196958 0.154652 -0.056451 -0.290692 -0.357477 0.412484 -0.115476 0.156022 0.301528 -0.355935 0.411620 0.189385 0.199627 0.082540 -0.336680 -0.020506 -0.070522 
征 0.598002 0.103397 -0.016165 -0.025768 0.178088 0.265248 -0.120961 -0.058028 -0.155748 -0.316645 0.230035 -0.401602 0.222025 -0.312588 -0.088100 0.018010 0.142586 -0.340895 0.310653 -0.099186 -0.270744 -0.611514 -0.059200 0.483397 0.042812 0.481750 -0.411903 -0.350063 -0.000780 0.080267 -0.340493 -0.354993 -0.314273 0.169014 0.142332 -0.218087 -0.061448 0.157381 -0.059802 -0.127554 -0.487857 -0.449546 -0.422372 0.489456 -0.458650 -0.463546 -0.777701 -0.549304 0.004422 0.078176 
理 0.229922 0.670676 0.080160 -0.163626 0.280177 -0.094219 -0.001964 -0.384446 0.133424 0.050260 0.429266 -0.071231 -0.644463 -0.228767 -0.055572 0.647972 0.140287 -0.662225 0.281272 -0.211496 0.233837 -0.405214 -0.276794 0.551113 -0.506951 0.381117 0.158832 0.281432 0.610682 0.178943 -0.413979 -0.335256 -0.264395 -0.109617 0.636483 0.127670 0.350816 -0.261177 -0.292771 0.029006 0.099861 -0.061114 -0.164241 -0.355720 -0.072878 -0.319539 -0.151460 0.074450 -0.296086 0.248179 
活 -0.173001 0.362403 -0.410029 0.697460 -0.009658 -0.017669 0.063764 -0.172256 -0.083154 0.047178 0.327188 0.171422 0.025146 0.101853 0.220790 0.062890 0.158705 -0.017184 -0.098958 -0.010684 0.037382 0.186650 -0.507089 0.137059 0.327010 0.525639 0.375033 0.684797 -0.224725 0.291490 0.006558 -0.009871 -0.209552 -0.252091 0.146518 -0.172707 -0.186537 -0.369143 -0.534989 -0.314597 -0.284442 0.123833 0.181308 -0.018643 0.144326 0.326042 -0.314033 -0.026408 -0.172965 -0.431392 
高 -0.083226 0.073669 -0.493866 0.029343 -0.067513 -0.304150 -0.520951 0.265850 -0.164117 -0.231168 0.270841 -0.047429 -0.004777 0.488189 0.124960 -0.310839 0.400137 -0.505512 0.461464 -0.311199 -0.236698 0.082279 -0.207884 -0.173199 0.264827 0.396330 0.027101 -0.252597 0.143651 -0.075297 0.028529 0.210047 -0.566861 0.176143 0.108042 0.359380 -0.128209 0.132428 -0.397898 0.252518 0.324030 0.190178 -0.259162 -0.252229 -0.326099 -0.125009 0.602415 -0.383045 -0.232427 -0.081781 
肾 0.176040 0.371913 0.162784 -0.290596 0.117642 -0.431906 0.413338 -0.004754 -0.740046 -0.494070 0.053493 -0.081694 -0.136868 0.324167 -0.164990 -0.077358 0.313524 -0.237167 -0.049136 -0.101057 -0.286085 -0.097962 -0.080966 0.200323 0.174430 0.350157 -0.098290 0.497036 0.200180 0.239196 0.256693 0.014884 -0.348089 0.248794 0.275697 0.487188 -0.010381 0.211866 -0.268061 0.425045 -0.290331 0.306036 0.438389 0.345677 -0.360977 0.317656 0.256764 -1.101985 0.108208 0.464158 
度 0.104956 0.170485 -0.119408 0.547202 -0.038350 0.276861 0.014995 0.066538 0.066606 -0.255883 -0.299364 -0.152317 0.295404 0.460531 0.229438 -0.124130 0.570074 -0.372762 0.058075 -0.303160 0.024931 -0.112139 -0.544703 -0.175781 0.124391 0.254165 -0.489776 -0.120855 -0.523793 0.219366 -0.094264 -0.142070 -0.716608 -0.027612 -0.152223 0.130620 -0.283256 -0.183434 -0.364124 0.362148 0.138545 -0.091344 -0.080247 0.111757 0.021348 0.717887 0.038560 -0.367607 -0.082574 -0.078356 
经 -0.192816 -0.613230 -0.158356 -0.220955 -0.036065 0.311146 -0.264409 -0.385055 -0.310474 -0.406574 0.113239 -0.262702 -0.236915 0.303959 -0.272070 -0.096168 -0.296193 0.158773 0.355198 0.150075 0.316757 -0.037509 -0.001988 0.463910 -0.025608 0.395033 0.068865 -0.205814 0.007648 -0.589670 0.149429 -0.392754 -0.176160 -0.259233 0.688785 -0.261030 -0.127357 -0.177978 -0.116321 -0.376901 -0.005120 -0.541050 -0.158778 -0.286334 -0.118124 0.404356 -0.035358 -0.051012 -0.089885 0.129993 
白 0.261958 -0.608134 -0.541628 -0.081699 0.193582 -0.262457 0.299688 -0.124014 -0.416122 -0.268240 -0.270023 -0.073396 -0.237296 0.146077 0.004142 -0.125239 0.502983 -0.478935 -0.198807 -0.287379 0.293214 -0.097885 -0.771859 0.548066 0.351260 0.062621 -0.091008 0.104537 -0.064810 -0.114517 -0.132564 -0.051576 -0.181555 -0.058086 -0.258455 0.099488 -0.274848 0.420214 -0.576039 0.287484 0.208818 -0.030200 -0.030136 -0.294897 0.273590 0.489749 0.020305 0.129476 -0.188830 0.282327 
皮 0.336404 -0.106880 -0.376232 -0.174995 -0.013051 0.115262 -0.089402 0.557680 0.276501 0.095658 0.051100 -0.125573 -0.251841 -0.075060 -0.836503 0.418188 0.081396 -0.186067 -0.289518 -0.488170 -0.135905 -0.130627 -0.488761 0.057345 0.448979 0.427017 0.104931 -0.175830 -0.656774 0.228191 0.271788 -0.332777 0.084789 -0.095970 -0.091944 0.128708 0.133832 -0.214742 -0.073967 -0.220599 0.292367 0.395829 0.025221 0.235382 -0.462157 0.281636 -0.092186 0.205426 -0.097536 0.069538 
张 0.478972 -0.233919 0.336742 -0.099288 0.201557 0.135089 -0.297719 -0.061075 -0.862324 -0.048126 0.693086 0.103190 -0.048837 -0.029812 0.037090 0.001096 0.096237 -0.281087 0.612160 -0.626646 -0.232685 0.270651 -0.096510 0.109224 0.471061 0.530831 -0.357617 -0.145370 0.059204 -0.365583 -0.752712 0.042913 -0.578681 0.108146 0.572059 0.242530 0.547079 -0.434609 0.176912 -0.240912 -0.123356 -0.426672 0.009349 0.046122 -0.276698 0.569622 -0.415913 0.423060 -0.054678 -0.221566 
日 -0.242579 -0.166766 0.106094 0.074901 -0.188260 0.289026 -0.167845 -0.000590 -0.466370 -0.013922 0.363238 -0.130865 -0.782112 -0.318600 -0.151283 0.103608 -0.177703 -0.660465 -0.361776 0.293453 0.213183 0.041968 -0.568021 0.233402 -0.237892 -0.078946 -0.045815 0.059196 -0.204636 -0.271658 -0.119228 0.108888 -0.109469 -0.348981 0.148706 -0.185446 -0.549890 -0.216580 -0.139105 -0.389056 0.347077 0.302131 -0.085900 -0.178081 0.409826 0.269638 -0.020193 -0.101155 -0.038463 -0.144179 
情 -0.058610 0.077398 -0.025207 0.103503 -0.378722 0.307840 0.475260 -0.282580 0.080941 -0.164165 0.004507 -0.520665 -0.165179 0.167432 0.039808 0.635753 0.629417 -0.733208 0.084677 0.200907 0.192987 -0.081236 0.213494 -0.058609 -0.388431 0.356572 -0.043642 0.222265 -0.051359 -0.131640 0.327839 -0.561476 -0.507713 -0.649409 0.104102 -0.192383 0.060432 0.135627 -0.241779 -0.026519 0.211602 0.090232 0.124346 0.416570 -0.151792 -0.368446 -0.522998 -0.555033 -0.201021 -0.469502 
闻 -0.512052 0.019899 -0.251530 0.314809 -0.090690 -0.261501 0.027779 -0.504472 -0.502402 0.355976 0.787957 -0.026125 -0.385079 -0.250527 0.331821 0.428490 0.075229 -0.556596 0.120272 -1.072737 0.324198 -0.261342 0.081441 0.492341 0.084153 0.598605 -0.924371 -0.204695 -0.167581 -0.428475 -0.181401 -0.433546 -0.157552 -0.234298 -0.362728 0.064870 0.025451 -0.243168 1.201053 0.744795 -0.103762 -0.620749 -0.591932 0.478389 -0.220623 -0.274999 -0.714752 -0.407266 -0.410799 0.092366 
炎 0.178724 -0.330130 -0.080955 -0.290030 0.056108 0.103507 0.263932 -0.137306 0.243101 -0.209430 0.065196 0.329246 -0.052543 0.019162 0.443616 -0.163702 0.232896 0.241304 -0.127855 -0.175874 -0.821061 -0.416944 -0.402795 -0.039661 0.189369 0.329001 -0.207511 0.233727 0.300571 -0.084555 0.254564 -0.079788 -0.982696 -0.049098 -0.065259 0.054677 -0.380498 0.287446 0.185130 0.292072 0.172235 -0.522030 -0.289584 0.040191 -0.238157 -0.411912 0.238090 0.110270 -0.031221 0.195400 
水 0.306480 -0.055742 -0.105507 0.606889 0.088340 0.314044 0.155057 -0.198950 -0.224446 0.311101 0.077921 0.229868 0.246498 0.146759 -0.152810 0.326421 0.268364 -0.682205 0.153044 -0.268985 -0.091816 -0.128935 -0.727869 -0.044559 0.024522 -0.045128 -0.147332 0.047529 -0.016003 -0.446319 0.033387 -0.121652 0.087884 -0.291796 0.133179 0.271979 -0.130547 0.542374 -0.239480 -0.353737 0.315589 0.175305 0.142129 0.041345 -0.806503 0.404526 -0.077414 -0.276523 0.115062 0.062607 
感 -0.051207 -0.201684 -0.207076 -0.061096 0.163008 0.303354 0.244340 0.316679 0.597860 -0.045149 -0.119542 0.428755 0.161931 0.028782 -0.404978 0.484775 -0.026815 0.165743 -0.282519 -0.083375 -0.235299 0.097237 -0.482084 -0.008429 0.600911 0.342293 -0.162334 0.043336 0.007856 -0.189123 -0.197813 -0.413964 -0.347446 0.011346 0.531165 0.297384 0.139001 -0.124092 -0.017840 0.341555 0.317178 0.101333 -0.501552 0.154048 -0.165696 0.094228 0.042335 -0.477178 -0.143808 0.058295 
行 -0.246008 -0.142214 0.216119 0.196756 -0.322138 0.189769 -0.189215 0.109995 -0.196568 0.036135 0.230854 -0.017929 -0.281036 -0.051079 -0.407977 0.047290 0.209799 -0.520924 -0.095195 0.395014 -0.813772 0.371515 -0.267097 0.347850 -0.472015 0.209435 -0.110741 0.256237 -0.187520 -0.110262 0.447525 -0.090631 -0.175292 -0.202295 0.317607 0.144454 -0.515413 -0.151429 0.138317 -0.123672 -0.084763 -0.082994 -0.310776 0.216717 -0.168756 0.171224 -0.012176 0.245869 0.195463 0.004769 
红 0.426363 -0.217310 -0.060474 0.007819 -0.157777 -0.159686 0.052051 -0.165175 -0.170267 -0.298003 -0.140088 -0.235870 -0.062777 0.116443 0.102172 0.054391 0.302564 -0.373321 -0.359828 -0.402652 0.208650 -0.141539 -0.716938 0.257496 0.539408 0.517697 -0.001855 0.069801 -0.709444 -0.455264 0.295754 -0.396916 0.258681 -0.142181 0.095249 -0.107058 0.190438 0.328311 -0.648729 -0.151994 0.304171 0.305523 0.325519 0.036469 0.242448 0.655364 0.074316 0.107699 -0.217164 0.503527 
主 -0.062679 0.068451 -0.022175 -0.327828 0.056815 0.664411 0.158966 0.376127 -0.190858 -0.193173 0.099065 0.068345 0.103186 -0.321231 0.092085 -0.116563 0.461897 -0.375502 0.555138 -0.285091 -0.001655 0.168809 0.033656 0.582974 0.558325 -0.217723 -0.342132 0.224005 -0.192489 -0.362975 -0.030560 0.042902 -0.615471 -0.626224 0.040694 -0.169220 0.025934 -0.013495 -0.224805 -0.179695 0.224950 0.031961 -0.047185 0.119124 0.036178 -0.144818 0.059698 0.218380 -0.285986 -0.481259 
外 0.085160 -0.055250 0.048551 -0.070301 0.139930 0.192234 -0.031459 -0.065505 0.139671 0.226022 -0.199398 0.423014 -0.004383 0.137091 -0.281179 0.180702 -0.009319 -0.301103 -0.279667 0.059246 -0.362108 -0.209892 0.109090 0.374186 -0.414011 0.274232 -0.289210 0.071287 -0.313730 -0.656570 0.490999 -0.476933 0.212317 -0.261597 -0.026384 0.334930 -0.101333 -0.322453 -0.077648 -0.306262 -0.217993 -0.358192 0.061344 0.015141 0.116492 0.093710 0.342627 -0.134948 -0.199327 0.333091 
触 0.282825 0.107352 -0.039070 -0.016773 -0.103863 0.236635 -0.153999 -0.520433 0.194719 0.121337 0.703449 0.124451 0.170212 0.390926 0.208595 0.058707 0.497702 0.290719 -0.069339 -0.294707 0.123827 0.050444 -0.620976 0.400567 0.321116 0.361389 -0.633388 0.475662 -0.544834 -0.255781 0.251988 -0.477764 0.424767 0.135934 -0.026086 0.510218 0.154946 -0.115079 0.399114 0.110095 -0.463118 0.580331 -0.198483 0.294608 -0.751079 -0.037965 -0.090728 -0.291217 -0.160593 0.476133 
气 0.228333 -0.062806 -0.126669 0.161698 -0.051454 -0.530705 0.556310 0.073397 -0.309116 -0.034749 -0.029614 -0.206681 0.024778 0.019787 0.546196 -0.297802 0.368768 -0.016073 -0.110632 0.162804 -0.704058 -0.021397 -0.500480 0.014510 0.416895 0.260592 -0.073273 0.242158 0.432361 0.148341 -0.159421 -0.223413 -0.255404 -0.144563 0.430632 -0.177089 -0.094148 0.005844 0.469744 -0.012139 0.500002 -0.283554 -0.360065 0.209631 0.252806 0.150701 -0.141388 -0.358810 -0.550239 0.709949 
形 0.408236 -0.196139 0.093127 0.098183 0.404026 0.260834 -0.468640 -0.001887 -0.192714 1.023199 -0.224676 0.188074 0.103546 0.701920 -0.056773 0.264720 0.375110 -0.192920 0.530729 0.169418 -0.656987 0.168754 -0.130740 0.658056 0.207770 0.488044 -0.403193 0.183405 -0.801829 0.017406 0.066548 -0.022337 0.158899 -0.165049 -0.141636 0.167937 0.204926 0.006272 -0.059182 0.092288 -0.325043 -0.509114 0.367472 0.193022 0.041432 0.471856 -0.100300 0.398245 -0.072797 -0.539083 
一 -0.207889 0.095896 -0.185780 -0.187293 -0.384603 0.411974 0.052494 0.137288 -0.349163 0.006224 -0.161886 -0.184198 0.096380 -0.089976 0.051434 0.398715 -0.196243 -0.242767 -0.078357 0.452117 -0.410588 0.444458 -0.075939 0.054725 -0.171969 0.258090 -0.144844 0.187364 -0.801263 0.101020 0.362895 -0.247055 -0.359061 -0.393264 0.116048 -0.137484 0.094532 0.274091 -0.023488 -0.111162 0.092422 0.100060 0.202488 0.223583 0.157341 0.032043 -0.145194 -0.300491 -0.497292 -0.624846 
平 0.357516 0.426767 -0.015808 -0.024774 -0.481915 -0.038367 -0.210692 0.207929 -0.207436 0.256856 0.449494 0.047978 0.438168 -0.292127 -0.004397 0.058445 0.299337 -0.731624 -0.107923 0.010975 0.348060 -0.560597 -0.056863 0.115304 -0.206021 0.192571 -0.526843 0.206446 -0.175715 -0.138236 -0.269032 -0.611175 -0.220487 -0.007448 0.087965 -0.133683 -0.113753 0.294961 -0.501282 -0.040597 -0.213706 -0.097821 -0.129359 -0.306163 -0.209040 -0.091556 -0.403106 -0.325503 -0.224998 -0.107411 
糖 0.154415 -0.058524 -0.483708 -0.325210 0.113141 -0.172480 -0.040784 0.139357 -0.745705 -0.264718 0.484964 0.340910 -0.271101 0.509956 -0.431367 -0.008990 0.467846 -0.684505 0.109596 -0.342697 0.365018 -0.115854 0.089631 0.438633 0.159971 0.356416 0.127201 -0.104677 0.403105 -0.184712 0.316795 0.179822 -0.552557 0.554405 -0.174474 0.220486 -0.221160 0.300276 -0.280070 -0.015522 0.326432 0.296966 0.409097 0.003819 0.512984 -0.625367 0.578817 -0.637481 -0.279444 -0.285936 
椎 -0.040379 0.682610 -0.561647 0.017881 -0.217290 0.032705 -0.266696 0.044757 -0.265416 -0.393876 0.334245 -0.242444 -0.252428 0.522645 0.427665 0.104977 0.582375 -0.321483 0.098754 0.580195 -0.169294 -0.297413 0.365976 0.536682 0.351700 0.220213 -0.403524 0.473688 0.110551 0.621125 0.386132 -0.120484 -1.145453 0.074268 0.156228 0.133462 -0.356903 -0.505152 0.490107 -0.046414 -0.437877 -0.397884 0.178501 -0.131928 -0.052807 0.126362 0.034045 0.311931 0.485876 0.120764 
好 -0.061489 0.018110 -0.332232 -0.237197 -0.197424 0.121140 0.079511 -0.074644 0.068677 -0.355845 0.404146 0.216911 0.140575 0.034146 -0.011888 0.668632 0.095902 -0.221140 -0.075163 0.467811 0.137906 0.625992 -0.156403 -0.459909 0.218697 0.282230 -0.482208 0.104906 -0.132495 -0.062606 -0.189901 -0.558143 -0.613699 -0.566652 0.193456 -0.686630 0.095214 0.127912 -0.098740 -0.099150 -0.171316 0.435105 0.397537 -0.063127 0.003412 -0.087462 -0.361034 -0.094277 -0.920652 -0.164096 
肠 -0.000737 0.440793 0.181922 -0.375350 0.026207 -0.468235 0.338264 -0.444969 -0.321120 0.401949 -0.079728 -0.085429 -0.484917 0.001813 0.204274 0.217693 -0.305010 -0.369370 -0.373892 0.412128 -0.312491 -0.112815 -0.290867 0.421656 -0.092130 0.689305 -0.517190 0.101688 -0.145138 -0.559798 -0.553027 0.263838 -0.183960 -0.072128 0.073221 0.405614 -0.309198 0.589646 0.027047 -0.203103 0.189225 -0.546322 0.133946 0.148821 -0.600064 0.240327 0.513306 0.071187 -0.111736 -0.165905 
予 0.374751 -0.219564 -0.294587 -0.007647 -0.122276 0.398888 0.027003 0.041440 0.077480 -0.138536 0.297277 0.411561 -0.100283 0.157472 -0.132202 0.278314 0.325306 -0.257378 -0.487510 0.150671 -0.380251 -0.274212 -0.206355 0.191934 -0.137165 -0.089351 0.151935 0.185375 -0.057119 -0.075489 -0.344419 -0.005100 -0.534965 -0.240672 0.774256 -0.260956 -0.243456 -0.072847 0.035727 0.186424 0.381663 0.192137 -0.357520 -0.288210 0.180327 0.013787 -0.035665 -0.196550 -0.041222 -0.077839 
医 -0.360651 0.258491 -0.211873 -0.698842 0.208676 0.595157 -0.104315 -0.080828 -0.083404 -0.419741 0.296629 0.051547 0.034760 -0.377472 0.161835 -0.105556 0.221973 -0.498195 0.111524 -0.065205 -0.136685 -0.301172 0.054623 0.823763 0.173403 -0.392638 -0.087227 0.675521 -0.203106 -0.645396 0.046058 0.279018 -0.580095 -0.710425 0.546109 -0.571634 0.026113 0.097906 -0.141431 0.046555 -0.005437 0.178052 -0.009624 -0.006546 0.055193 -0.073452 0.116922 0.071467 -0.196239 -0.030478 
月 -0.339292 -0.509617 -0.351034 0.088469 -0.240361 0.024960 -0.314064 -0.632199 -0.511579 -0.166473 0.233226 -0.128074 -0.430649 -0.147040 -0.126782 -0.289753 -0.517476 -0.408487 -0.255240 0.195543 0.262130 -0.073712 -0.777614 0.202730 -0.080301 0.064223 -0.184787 0.057591 -0.183237 0.087791 0.301980 0.058203 -0.032860 -0.200663 -0.116467 -0.215043 -0.623372 -0.278279 0.072541 -0.737491 -0.067126 -0.109384 -0.392928 -0.224427 0.137039 0.176631 0.286888 -0.385569 -0.021348 0.033314 
合 0.278957 0.254584 -0.325223 -0.506162 0.459993 0.151125 0.198801 -0.028310 0.091611 -0.365478 0.072110 -0.335414 0.459738 -0.328116 -0.256915 -0.321760 -0.029075 -0.390470 -0.302192 -0.265692 -0.757958 0.177978 -0.073027 0.174041 -0.153500 0.615946 -0.004557 -0.159024 -0.242310 0.414931 -0.292780 -0.188366 -0.544303 -0.333122 0.328255 -0.381388 0.078185 0.215851 -0.316106 0.143900 -0.169581 0.049072 -0.154386 0.192824 -0.083097 0.294304 0.280107 -0.123478 -0.590103 0.166255 
内 0.023272 -0.061799 0.064082 0.083055 0.198181 0.373050 -0.083472 -0.126239 -0.343827 0.327108 0.062757 0.019247 -0.415489 0.252120 0.007441 -0.185619 -0.102699 -0.027330 -0.182524 -0.199528 -0.422157 0.387188 -0.251249 0.597312 -0.364496 -0.050288 0.035867 0.084537 -0.510669 -0.183890 0.161694 0.184947 -0.345344 -0.478770 -0.183435 0.261040 -0.184897 -0.118343 -0.129684 0.174490 -0.268814 -0.007185 -0.221523 -0.261547 0.094334 0.395735 0.429709 0.344029 -0.216965 0.005909 
能 0.277124 -0.509512 -0.501709 -0.322012 0.221060 0.457202 0.663080 0.094489 -0.314820 -0.080547 0.336189 -0.197166 0.002920 0.521968 -0.041534 0.025376 0.357577 -0.339352 -0.427835 -0.257655 -0.447660 0.683417 0.120231 -0.022915 -0.105588 0.581738 -0.060466 0.180787 0.117183 0.097265 -0.021816 0.413930 -0.132352 0.292249 0.188945 0.246830 0.052943 0.131090 -0.276272 0.124395 -0.214080 0.018039 0.006177 0.007770 0.081376 0.145204 -0.094965 -0.173423 -0.038406 0.209563 
腰 -0.192106 0.769305 -0.291229 -0.044973 -0.444171 -0.169695 -0.176575 0.195396 -0.291511 -0.560837 0.102324 -0.426637 -0.351090 0.128712 -0.191641 0.253313 0.655525 -0.475690 -0.075715 0.680442 -0.190873 -0.335616 0.028267 0.013371 0.407897 0.305608 -0.380523 0.296745 0.141795 0.321870 0.599920 0.203457 -0.519989 0.014429 0.434598 0.034734 -0.147994 -0.699926 0.117023 -0.215617 -0.423729 -0.361248 0.191924 -0.219298 -0.316811 0.141354 0.066723 0.043236 0.009700 0.020257 
便 0.412727 0.110687 -0.941217 0.082338 -0.232330 -0.111903 0.239285 -0.145506 -0.487055 -0.115340 0.247873 -0.023442 -0.227701 -0.036809 -0.202600 0.543427 -0.122216 -0.199575 -0.094317 -0.081564 0.122028 -0.189225 0.076396 -0.362734 -0.362012 0.205618 -0.774789 0.282460 -0.243989 -0.447233 0.116911 0.093016 0.000332 0.078969 -0.238607 0.090759 -0.213279 0.828224 -0.215231 -0.541884 -0.005630 -0.427788 0.208628 0.410826 0.629780 0.187988 -0.712481 -0.202354 -0.536765 -0.276008 
染 0.386136 -0.355123 -0.435112 -0.224070 -0.040673 0.155997 0.423571 -0.179505 0.448875 0.184517 0.152619 0.531141 0.235056 0.155663 -0.827420 0.217311 -0.104230 -0.107339 -0.199183 -0.641797 -0.302940 -0.321160 -0.493714 -0.189595 0.561674 -0.003499 0.157222 -0.022958 0.171945 -0.046273 0.100622 -0.288293 -0.447457 -0.400064 0.379550 0.128047 -0.284784 0.138974 0.099189 0.487580 0.498149 -0.034763 -0.402635 -0.047031 -0.393764 -0.434490 -0.136439 -0.219902 -0.160518 0.312127 
复 -0.006707 -0.064363 -0.036568 -0.657962 0.170772 0.061718 0.039210 -0.515569 -0.373228 -0.142024 -0.167221 0.215305 -0.252580 -0.200480 -0.177023 0.222348 0.056806 -0.459328 -0.461301 0.053687 -0.066643 0.387713 -0.229191 -0.100538 -0.110034 0.076360 -0.061546 0.166522 -0.011838 -0.199028 0.190134 0.155156 -0.209890 -0.197490 0.116209 -0.290782 -0.408991 -0.282096 -0.259938 -0.036379 -0.062582 -0.179973 -0.085443 -0.526933 0.365507 -0.082849 0.221567 -0.448197 -0.324118 -0.125042 
位 -0.344831 0.309732 0.032994 -0.053792 0.270153 0.325052 -0.147847 0.244444 -0.112388 0.418438 0.195290 0.102103 0.118294 0.090145 -0.155080 0.182130 -0.034277 0.388492 0.253512 0.385314 0.082738 -0.022458 -0.057181 0.285127 -0.144554 0.529514 -0.498946 0.136405 -0.398368 0.325734 0.441492 -0.154046 -0.609044 -0.044243 -0.268886 -0.020322 -0.756502 -0.076545 -0.432008 -0.105393 -0.625198 0.482510 -0.173867 0.194301 -0.092619 0.350247 -0.214591 -0.035393 0.204042 -0.179520 
间 -0.642604 0.159726 -0.450844 0.178314 0.109603 -0.300825 -0.341863 0.270406 -0.458105 -0.321163 0.117067 0.142118 -0.339176 0.100208 0.498094 -0.081843 0.782323 -0.170810 -0.077620 0.466575 -0.364534 0.068766 -0.418398 0.779804 0.280897 0.150803 -0.113718 -0.176999 -0.224319 0.296406 0.226051 -0.361017 -0.276629 0.115404 -0.313149 -0.346774 0.053914 -0.236106 0.204155 0.008317 -0.032829 0.201959 -0.363473 -0.272926 0.042863 0.131464 0.155491 0.086377 -0.221302 -0.215150 
上 -0.095394 -0.042586 0.423708 -0.287831 -0.222396 0.153054 -0.125702 0.534411 -0.260473 -0.150322 0.146640 -0.035602 0.217285 -0.334412 -0.126056 0.212538 0.396134 -0.282357 0.102852 0.141349 -0.348410 -0.103771 -0.294311 0.133080 0.298482 0.218073 -0.133439 0.191714 0.047920 -0.093889 0.008697 0.028378 -0.340075 -0.307727 0.390148 -0.489150 0.220221 -0.031326 -0.284105 -0.021453 -0.175659 -0.031136 -0.190712 0.040768 -0.303685 0.222519 0.340528 -0.346016 0.226701 0.115201 
软 0.533374 0.558482 -0.183893 -0.362496 -0.228622 -0.188390 -0.392900 0.224327 -0.247141 0.087067 0.638999 0.407503 0.488858 -0.104362 0.182007 -0.145385 0.236364 -0.400767 -0.283857 -0.462518 0.228212 -0.330702 -0.337151 0.006198 0.150720 0.598386 -0.413908 0.140424 -0.315973 -0.516945 -0.422258 -0.210064 -0.088295 -0.340744 -0.016210 -0.051625 0.207179 -0.031604 0.303805 -0.243404 -0.509895 -0.302618 -0.087400 0.101013 -0.388549 0.087805 -0.286620 0.236103 -0.326644 0.125777 
化 0.292447 -0.311657 -0.370015 0.272711 0.181000 0.078560 0.362511 -0.089181 -0.074687 0.075750 0.084648 0.094174 -0.336738 0.065624 0.045326 0.192797 0.801433 -0.157575 0.067989 -0.360956 -0.324149 -0.107666 -0.113474 -0.105532 -0.082682 -0.008070 -0.059448 0.224932 0.065863 -0.083457 0.368871 -0.296603 -0.728024 -0.083022 -0.307269 0.091982 -0.533980 -0.157133 -0.276407 0.135331 0.227526 0.032331 0.200053 0.074248 0.310840 0.118967 0.365215 0.321970 -0.031035 -0.360665 
为 -0.220157 -0.193824 -0.103436 -0.129108 -0.037511 -0.087015 0.245821 0.507917 -0.086608 -0.026474 -0.011664 0.051444 -0.132529 -0.178739 -0.105807 -0.030852 -0.041801 -0.136594 0.324266 -0.094549 -0.437522 -0.132129 -0.212425 0.315566 0.331768 0.166218 0.035930 0.183546 0.120034 0.040852 0.420397 0.205264 -0.336801 -0.301370 0.050958 -0.441582 0.097790 0.024995 -0.252280 -0.070142 -0.064756 0.065029 -0.333926 -0.222093 -0.262240 -0.263181 0.064336 -0.115548 -0.231522 -0.013253 
抗 0.619702 -0.706740 -0.505402 -0.665091 -0.172553 0.107143 0.149487 -0.291858 0.063549 0.175432 0.224660 0.439881 0.572768 -0.341741 0.066950 0.605467 0.045644 0.012123 -0.278227 -0.182705 -0.199834 -0.378478 -0.236950 0.115716 0.608173 0.419334 0.206690 -0.149491 0.376837 0.010763 -0.084000 -0.538081 -0.829654 0.042889 0.312351 0.029730 -0.383323 0.084993 -0.083443 -0.099537 0.438546 0.257531 -0.111322 0.043802 0.227501 -0.170565 -0.137232 -0.432583 -0.053089 0.178756 
骨 -0.775566 0.094811 -0.128381 0.194789 0.607994 0.104301 -0.216221 0.270204 -0.194364 -0.152092 0.244187 0.088377 0.380962 0.296970 0.015693 0.643493 0.507175 0.015237 -0.416523 0.180914 -0.444583 -0.630587 -0.002472 0.491887 0.156849 0.154100 -0.090090 0.098363 -0.407991 -0.157815 0.718599 -0.492561 -0.674919 -0.257791 0.012042 0.157893 -0.174368 -0.220472 0.030533 0.281922 -0.240074 -0.170925 0.278334 -0.172611 -0.389195 0.198587 -0.034448 0.066662 0.208044 0.307788 
静 0.826949 -0.095314 0.177748 -0.235723 -0.559388 0.383177 -0.340401 0.356070 -0.724750 0.448921 0.559681 -0.084779 0.048387 0.257191 0.202095 -0.245556 0.256556 -0.406194 -0.568577 -0.098969 -0.218619 -0.274099 -0.450688 0.637986 0.558928 -0.004937 -0.219679 -0.527559 -0.095600 -0.133939 -0.363247 -0.774306 -0.017113 -0.371586 0.538524 0.069152 0.027345 0.057697 0.500981 -0.264115 0.177020 0.368767 -0.106838 0.079151 0.092649 0.551407 -0.478270 0.512075 0.156358 -0.563916 
食 -0.053621 0.064872 -0.116990 0.341665 -0.154443 0.201239 -0.022163 0.148804 -0.390738 -0.048440 0.324724 0.278967 -0.185947 0.455126 -0.132268 0.633520 0.113421 -0.159996 -0.217109 0.095312 -0.189937 0.120276 -0.066271 0.038742 0.078753 -0.245191 0.162402 -0.008515 0.407996 -0.474661 0.452087 -0.048900 -0.432647 0.095156 0.479148 0.435231 -0.031852 0.863482 0.085016 -0.079195 -0.200576 -0.314127 0.192012 0.380680 0.343358 0.134828 -0.222212 -0.552190 -1.156382 -0.332542 
多 -0.133548 -0.438419 0.275765 -0.004742 0.110034 -0.221138 -0.077247 0.412358 -0.426373 0.182946 0.057165 -0.050923 -0.427930 0.153708 -0.118621 0.073007 0.181008 0.148107 0.203947 -0.205233 -0.166825 -0.152312 -0.464286 0.041362 -0.142046 -0.018636 -0.515669 -0.074258 -0.074592 0.310100 0.292471 0.284185 -0.336926 -0.098345 -0.098045 0.220217 -0.054021 0.378235 -0.234116 -0.027541 -0.165196 -0.144780 0.026892 -0.189896 -0.338474 0.085564 0.479362 -0.123591 -0.333600 -0.446853 
规 0.129828 -0.276182 -0.650822 -0.621893 0.266105 0.112963 0.572038 -0.690688 -0.723916 -0.141243 0.051688 0.174325 -0.514812 0.379666 -0.489089 -0.116089 -0.161127 -0.440985 -0.527491 -0.166223 0.397102 -0.282551 -0.163642 -0.017311 -0.040438 0.138720 -0.325639 0.492757 -0.008739 -0.058711 -0.318138 0.277004 -0.055605 0.535708 -0.038084 0.036040 -0.174375 -0.110916 -0.402321 0.084538 0.089487 -0.123203 0.000314 0.014642 0.659457 0.126870 -0.292052 -0.371926 -0.089158 0.243668 
天 -0.073208 -0.775799 -0.143973 -0.010190 -0.138441 0.151038 -0.347263 -0.144990 -0.315325 -0.449075 -0.277318 0.094095 0.006589 -0.363351 -0.073331 -0.296627 -0.028630 -0.153277 -0.383728 0.188567 0.199506 0.024389 -0.425307 -0.005210 0.115919 0.111890 -0.608688 -0.063712 -0.382415 -0.460955 0.422235 0.108503 -0.420253 -0.291781 0.076680 -0.062972 -0.246248 -0.162350 0.664346 -0.764101 0.189948 -0.085575 -0.471356 0.314589 0.286912 -0.098388 0.117222 -0.177802 -0.320597 -0.321464 
时 -0.139881 -0.306468 -0.348440 0.109640 -0.279528 -0.401167 0.190646 0.126747 -0.110307 -0.091580 -0.138723 0.208377 -0.166168 0.057820 -0.020820 0.174899 0.221035 -0.392535 -0.185276 0.306691 0.059857 0.281708 0.093721 0.491349 0.069745 0.156465 -0.007357 0.130438 -0.556231 0.317738 0.345997 -0.017247 -0.032841 0.030665 0.155059 -0.025132 -0.288732 -0.456410 -0.067458 0.046859 -0.034163 0.116581 -0.515175 -0.242006 0.451827 0.025621 -0.251690 -0.289996 -0.142036 -0.385012 
关 -0.503024 0.291975 -0.874480 0.151913 0.555997 0.222923 0.044851 -0.244359 -0.187832 -0.159081 0.382715 0.046331 -0.296892 0.121484 -0.621233 0.125153 0.157239 -0.096889 -0.385647 0.492672 -0.656612 -0.507246 -0.371588 -0.046182 0.507138 0.423216 0.088379 0.636574 -0.133111 0.515216 -0.049279 0.083489 -0.131485 0.229185 0.184504 0.029752 -0.120459 -0.284575 -0.107347 -0.002571 -0.360697 0.247816 0.128440 0.795002 -0.163013 -0.041634 0.167669 -0.280044 0.166513 -0.187386 
咳 -0.061627 -0.904038 -0.102577 0.171512 -0.068484 -0.100161 0.331844 0.071789 0.103687 -0.429989 -0.089220 -0.401826 -0.397877 -0.179362 0.075796 0.460948 0.081099 0.006417 0.196526 0.084600 0.076955 -0.424071 -0.575118 0.064102 0.864458 -0.302061 -0.624907 0.433558 0.344878 -0.214004 0.050839 0.455965 -0.325480 -0.394254 0.020760 -0.246890 -0.497044 -0.513122 0.516203 0.164628 0.331550 0.024454 -0.506041 0.108733 -0.093116 0.020246 -0.147179 0.087517 -1.185953 -0.308900 
现 -0.143170 -0.462773 -0.155756 -0.207766 -0.267619 0.027132 0.074602 0.361419 0.161064 -0.031476 -0.226971 0.130407 -0.407274 0.005014 -0.018013 0.078649 0.306932 -0.334378 0.223624 0.136057 0.031244 -0.009731 -0.233385 0.151247 0.137150 0.195807 -0.292164 0.019119 -0.281621 0.307374 0.149561 0.279194 -0.084670 -0.170808 -0.014010 -0.255886 -0.009389 -0.007571 -0.297110 -0.327086 -0.084455 -0.029046 -0.439378 -0.135591 -0.424844 -0.451665 0.117317 -0.008237 -0.229197 -0.104767 
质 0.384335 -0.055277 -0.514377 0.272097 0.440026 0.063966 -0.176929 -0.064324 -0.405650 -0.154918 0.087625 -0.360051 0.115206 0.077028 0.053661 0.273426 0.351574 0.312143 -0.142842 -0.294101 -0.129634 0.040927 -0.225934 0.332668 -0.082095 0.062714 0.246238 0.449950 -0.390545 0.356635 0.724634 -0.040760 -0.562077 0.284546 -0.148577 0.041721 -0.148059 0.262827 -0.338764 -0.056531 -0.221848 -0.089688 0.128826 0.031930 -0.183545 0.272220 -0.254640 -0.315137 -0.071297 0.196043 
节 -0.522039 0.012403 -0.346363 0.568200 0.676361 0.098720 -0.133193 -0.083539 -0.198091 0.223545 0.639699 -0.134765 -0.142692 0.131685 -0.379216 0.268044 0.031485 0.168448 -0.279627 0.073621 -0.731448 -0.353024 -0.308646 -0.021546 0.399224 0.113350 -0.166378 0.577721 -0.372980 0.334592 0.143394 0.159535 -0.383115 -0.004280 -0.092230 0.189546 0.197565 0.050409 -0.238424 -0.410751 -0.364180 -0.066655 0.269423 0.412815 -0.468027 0.182543 0.296386 -0.240765 0.138744 -0.343114 
变 0.058695 -0.109568 -0.210907 0.382176 0.160339 0.141868 0.076247 -0.225578 -0.082184 -0.021726 0.256100 -0.202939 -0.742836 0.381439 0.011037 0.352834 0.562598 -0.036609 0.242323 0.316030 -0.093192 0.013092 0.202833 0.222814 -0.020659 0.037207 -0.548593 0.025410 -0.034532 -0.051375 0.702090 -0.238114 -0.841416 -0.114597 -0.355018 0.183549 -0.308258 0.054663 -0.241251 0.238557 0.071139 -0.169471 -0.028871 0.292942 -0.260829 -0.007774 0.077704 0.222872 0.385945 -0.420362 
因 -0.170402 -0.456978 -0.376195 -0.251548 -0.057954 -0.291280 -0.114642 -0.020288 0.157066 -0.464896 -0.183600 0.108770 -0.292329 -0.394389 0.062233 -0.402649 -0.268844 -0.495936 0.029075 -0.169270 -0.247162 0.277766 -0.537661 0.186174 0.156847 0.160281 -0.440729 0.163955 0.083058 -0.046026 0.378630 0.113333 -0.353574 -0.093052 -0.166368 -0.218674 0.023974 -0.529568 -0.150822 -0.627059 -0.026751 -0.112145 -0.468536 0.089116 -0.084569 -0.348403 0.282171 -0.243628 -0.113047 -0.129623 
腺 0.326845 -0.564844 0.038145 -0.332447 -0.123306 -0.120263 -0.138342 -0.409799 -0.884367 0.506882 0.321726 -0.188181 -0.240977 -0.005061 -0.113752 0.111635 0.792047 -0.083915 0.027482 -0.400196 -0.856865 0.257408 -0.180222 0.138429 0.125667 -0.180648 -0.091792 -0.153857 0.367736 0.749869 0.037669 -0.152785 -0.477395 -0.402436 -0.529656 -0.227564 0.105917 0.360036 0.092300 -0.323630 -0.327783 -0.052682 0.320771 0.089741 -0.437718 0.336695 0.212458 -0.545504 0.000650 0.630118 
指 -0.273540 0.173432 -0.344604 -0.233660 0.513729 0.620624 0.090026 -0.307775 0.190328 -0.066268 0.400988 0.060049 0.214353 0.032532 -0.196881 0.218628 0.132798 -0.638794 -0.012613 0.152795 -0.228100 0.172263 -0.191066 0.253737 0.399067 0.554932 -0.326183 0.139016 -0.378470 -0.242083 0.067603 0.133685 -0.232105 -0.268105 0.394095 -0.155749 -0.149683 0.238395 -0.468709 -0.154797 0.439832 0.341283 -0.135106 0.116000 0.100449 -0.570879 0.347412 0.527007 0.189191 0.083243 
细 -0.337396 -0.616609 -0.223619 -0.652490 0.112373 -0.137279 0.077225 -0.139160 -0.389816 -0.205001 -0.005802 0.235728 -0.319315 -0.039933 0.338198 -0.159975 -0.074139 -0.148021 0.011239 -0.365508 0.080054 -0.672502 -0.376466 0.394485 0.553659 0.281489 -0.320323 0.317432 -0.352241 -0.079042 -0.593171 -0.089027 0.192129 -0.193427 0.251369 0.078867 -0.299376 0.236061 -0.967577 0.246807 0.190050 -0.021402 0.211833 0.282956 0.083309 0.353329 0.265179 0.067825 -0.177812 0.140389 
子 -0.194875 -0.410271 -0.181680 -0.368213 0.234061 0.089878 -0.175211 -0.236807 -0.761329 0.285960 0.298130 0.454780 -0.158292 0.157427 -0.035126 -0.108363 -0.008046 -0.169272 -0.643713 -0.124212 0.044065 0.536323 -0.173686 0.205747 -0.169389 0.297168 0.109951 -0.256960 -0.297542 0.271105 0.017129 0.375081 -0.723331 -0.032289 0.070488 -0.394227 -0.574649 -0.167273 -0.033613 0.032269 -0.131963 -0.004895 0.242498 0.146485 -0.291763 0.381510 -0.271722 0.245192 -0.259432 0.776536 
手 -0.790838 0.024828 0.382714 -0.180521 -0.289183 0.552872 -0.468043 0.185581 0.092421 0.062067 0.367491 0.227037 -0.018217 0.281138 -0.531043 0.124661 0.045420 -0.410830 -0.540549 0.029876 -0.522419 -0.062421 -0.265267 0.442820 -0.056159 0.729482 0.157004 0.112509 0.249804 0.024143 0.237651 0.107428 0.303245 -0.402200 0.379937 0.051109 0.096479 -0.052451 0.105767 -0.125701 0.024754 -0.012576 -0.327840 0.571378 0.074993 -0.375090 -0.004504 -0.274088 -0.200303 0.330913 
断 -0.158862 0.282621 -0.450543 -0.291760 -0.223003 0.453414 -0.134976 0.009705 -0.165501 -0.024264 0.211938 -0.116710 -0.146172 0.210961 0.270704 -0.349043 -0.015270 -0.009235 -0.072433 0.080157 -0.849439 -0.373664 -0.135500 0.512909 0.131859 -0.164566 -0.302428 -0.092416 0.204211 -0.260037 0.055658 0.237244 -0.750183 -0.410362 -0.300161 -0.376745 0.225426 0.153230 0.093456 0.530600 -0.399187 0.088621 -0.728496 -0.050200 0.058683 -0.398084 0.184518 -0.259385 0.147462 0.193015 
药 0.042774 -0.288988 0.079936 -0.099921 -0.097210 0.036082 -0.364708 -0.212837 -0.197989 -0.119679 0.020618 0.267042 -0.236344 0.336336 -0.239532 0.202597 0.351103 0.270217 -0.488447 -0.559642 0.050502 -0.354131 0.304040 0.737309 0.118172 -0.178824 0.438292 0.681618 -0.073938 -0.236316 0.145731 0.015107 -0.099270 -0.052651 0.553721 -0.577804 -0.104664 0.061948 0.337261 -0.134116 0.162347 0.296740 -0.190103 -0.136304 0.616819 0.000566 0.503149 -0.408829 -0.826684 -0.033327 
搏 -0.019735 0.676177 -0.891231 0.305107 -0.333302 0.370163 -0.020114 -0.493550 -0.172205 0.117722 0.552470 -0.177105 -0.045192 0.316772 0.629963 0.189489 0.021729 0.047984 0.302187 -0.223604 0.642531 0.272906 -0.188771 0.231598 0.180997 0.564591 -0.482357 -0.513444 -0.642500 -0.684612 0.384446 -0.665378 0.012705 -0.528068 -0.164331 0.772013 -1.063632 0.134890 0.512111 -0.191113 -0.015978 0.412843 -0.174987 0.692374 0.685608 -0.294661 -0.446195 -0.643909 0.100338 -0.287687 
认 -0.667033 -0.369165 0.062059 -0.175288 -0.360638 -0.031093 0.307669 -0.234004 0.444282 -0.506621 0.313681 0.116429 0.403228 0.576157 0.480184 0.231567 0.317192 -0.538127 0.049154 -0.534109 -0.557626 0.011375 0.058340 0.472663 -0.067623 0.000861 -0.093115 0.772415 -0.020457 -0.437980 0.666788 -0.184373 -0.243472 0.119229 -0.129430 0.606577 -0.270432 0.370657 0.578784 -0.165129 0.286547 0.350368 -0.083857 0.330935 -0.417207 -0.363853 0.190884 -0.626840 -0.859451 0.129802 
在 -0.096753 0.144787 0.278624 -0.115181 -0.059505 -0.173925 -0.015287 0.105596 0.071803 0.139471 0.314054 -0.184052 -0.405977 -0.314242 -0.096221 0.378628 -0.098881 -0.592132 0.242521 -0.204555 0.208016 -0.190672 -0.762108 0.865775 -0.113389 0.294532 0.107711 -0.412281 -0.050067 0.240096 0.130150 0.094531 -0.234377 0.129120 0.405384 0.166093 -0.178196 -0.321046 0.032271 -0.544237 -0.140045 0.086008 -0.460958 -0.178648 -0.066471 0.314198 0.181532 0.171316 0.310425 0.157378 
全 0.285407 0.468632 -0.222428 -0.580598 -0.441282 0.063727 0.078288 0.499790 0.039845 0.271154 0.100988 0.011003 -0.230581 -0.001956 -0.163842 -0.607754 0.219127 -0.461889 -0.383740 -0.208864 0.001350 -0.141284 -0.398077 0.186786 0.038702 0.670265 -0.284377 -0.309455 -0.039434 0.006747 -0.100483 -0.123165 0.293469 -0.095980 0.717784 0.007585 -0.360712 -0.048368 -0.133370 0.142905 -0.268296 0.073102 0.016805 0.180482 -0.502114 0.056113 -0.158516 0.333726 -0.106954 -0.099417 
支 0.507447 -0.367871 -0.046031 -0.543199 -0.334344 -0.355095 0.512073 -0.397247 0.013466 0.234132 0.246880 0.188638 -0.110253 0.368450 0.407695 -0.039880 0.294984 0.467515 0.609608 0.142511 -0.589203 -0.282461 -0.379471 -0.232202 0.118081 0.529190 -0.172412 0.238710 0.475132 -0.019355 0.148780 -0.427706 -0.565762 -0.206367 0.251071 -0.099453 -0.359230 0.038723 -0.104621 0.011561 0.455590 -0.285002 -0.814265 -0.122065 -0.064619 -0.212068 0.156270 -0.277840 -0.123399 0.240275 
否 -0.182393 -0.529065 0.061836 -0.136085 -0.163286 0.039085 -0.046377 -0.230823 0.548822 -0.309381 0.351289 0.279672 0.283027 1.035611 0.474123 0.413805 0.477800 -0.194351 0.154651 -0.704780 -0.658307 0.149974 -0.251845 0.540341 -0.574280 0.128931 -0.302917 0.707762 0.228277 -0.312350 0.687043 -0.454647 -0.134447 0.253031 -0.226120 0.559676 -0.328525 0.421037 0.552153 -0.391867 0.284770 0.318870 0.068975 0.299226 -0.455655 -0.286456 0.114498 -0.550157 -0.757178 0.012056 
功 0.545256 -0.424731 -0.701890 -0.587610 0.169276 0.495004 0.732143 -0.139177 -0.591644 -0.108043 0.355230 -0.303119 0.164949 0.477794 -0.138380 -0.168031 0.701620 -0.638228 -0.520558 -0.162655 -0.205189 0.721978 -0.106791 0.077598 0.103725 0.509645 -0.212244 0.074567 0.277882 -0.006562 -0.047257 0.465679 -0.347076 0.501559 0.254215 0.396541 0.061322 0.020504 -0.000581 0.079179 0.022440 0.181538 0.084423 0.191980 0.300081 0.406011 -0.113247 -0.280693 0.279676 0.367466 
超 0.476631 -0.058201 0.149511 -0.695733 -0.064567 0.436985 -0.095586 -0.507229 -1.042434 -0.073821 0.023452 0.073591 -0.271254 0.445037 -0.042631 -0.133467 0.234581 -0.434322 -0.090360 -0.167432 -0.025161 0.403577 -0.093805 0.209869 0.058909 -0.294534 -0.092266 0.117999 -0.159096 -0.161586 0.152486 -0.055147 -0.332153 -0.491299 -0.335510 0.131486 -0.991904 -0.164484 -0.232305 0.176335 -0.584556 -0.053740 -0.286717 -0.526554 0.104766 0.272121 0.112760 -0.190187 0.222552 0.192245 
叩 0.411705 0.884932 0.329174 0.141929 -0.330666 -0.541582 -0.223092 -0.236704 -0.221520 0.948472 0.774169 0.475840 -0.107658 -0.436494 -0.073796 -0.581140 0.015804 0.379356 0.016954 0.157968 -0.345675 -0.035140 -1.103573 0.297463 0.584531 0.707222 -0.724747 0.739651 0.049257 -0.025545 0.128824 0.116984 -0.460900 -0.184701 -0.496149 1.605370 0.228973 -1.050064 0.440241 0.358977 -0.805116 -0.408096 -0.129014 0.136142 0.209263 -0.069202 -0.317847 -0.765318 -0.312521 0.414090 
意 0.319905 0.056247 0.352156 -0.191151 -0.136812 0.652585 -0.194207 -0.023441 -0.016125 0.240367 0.030932 -0.043851 -0.300340 0.317408 -0.156546 -0.113813 0.392034 -0.539051 -0.346951 0.134544 0.058550 -0.325557 0.088436 0.896159 -0.196875 0.005822 -0.003842 -0.149714 0.218677 -0.034584 0.098602 -0.039358 -0.674651 -0.247801 0.069154 -0.292546 0.054574 0.077838 -0.172483 0.890129 -0.589723 -0.139985 -0.303048 0.173562 0.190402 -0.081915 -0.167010 -0.212193 -0.282643 -0.615548 
畸 0.081890 -0.049558 -0.161883 0.187943 0.344264 0.520989 -0.879338 -0.426945 0.118157 0.981610 -0.266442 0.339164 0.325223 0.201757 0.187434 0.154957 0.769679 -0.176977 1.033394 -0.114195 -0.832767 0.279525 -0.212382 0.336584 0.138933 0.279578 -0.655577 0.814148 -0.618397 -0.553577 -0.264253 -0.036576 -0.124411 -0.361447 0.041020 0.483763 0.256773 -0.449237 0.174350 -0.603658 -0.053847 -0.934479 0.792364 0.586944 -0.053959 0.428739 -0.247158 0.333209 -0.143579 -0.421280 
精 -0.323900 -0.214087 -0.241576 -0.402549 -0.101175 -0.057046 -0.138317 0.252731 -0.054009 -0.057709 0.512785 -0.297635 -0.467901 0.019309 0.065247 0.246307 0.255593 0.073469 0.177122 0.369170 -0.406835 0.157616 0.057758 -0.213146 0.292663 -0.213348 -0.401415 -0.129018 -0.356504 -0.641353 0.272336 -0.242534 -0.381733 -0.141077 0.491672 -0.082767 0.295398 0.614224 0.434270 -0.179119 0.112217 -0.022211 0.305948 0.390549 -0.059730 0.325078 -0.706800 -0.192274 -0.950524 -0.262440 
点 0.459348 0.144115 0.061359 -0.457513 -0.187736 -0.392796 0.173758 0.223589 -0.041317 0.156792 0.243922 0.003022 -0.207061 0.034602 0.142061 -0.129862 0.583937 0.279075 0.664279 -0.221435 -0.170820 -0.481482 -0.536551 0.353650 0.005893 0.346349 -0.352369 0.110337 -0.678485 -0.123532 0.390101 0.123152 0.280558 -0.210963 0.036381 -0.242715 0.073192 -0.131254 -0.280151 -0.275722 0.031078 -0.414938 -0.738334 0.054711 -0.354472 -0.543483 0.508466 -0.162373 -0.415575 0.267435 
脏 0.299916 0.062801 0.095123 -0.608556 0.430645 0.241395 0.171315 0.226483 -0.575404 0.080925 0.087404 -0.244140 -0.156913 0.706149 -0.098282 -0.299201 0.438237 -0.435489 -0.226924 -0.474252 0.085246 0.317381 0.266043 0.628277 -0.323540 0.153100 -0.781780 0.180857 0.296456 -0.120075 0.145536 -0.676731 -0.159554 -0.161915 0.025729 0.448374 -0.160029 -0.193387 0.171902 0.378823 -0.108633 -0.251674 0.162310 0.126629 -0.623909 -0.049337 0.141898 -0.527535 0.145650 -0.093352 
表 0.019761 -0.013913 -0.104506 -0.639177 -0.435147 0.263193 0.352293 0.246309 0.382455 0.082693 -0.466867 -0.002906 -0.620383 -0.227624 0.280337 0.066445 0.325548 -0.130426 0.173188 -0.502742 -0.455564 -0.137209 0.322145 0.161061 0.407194 0.435392 -0.201397 0.322723 -0.621099 0.602836 0.320168 0.052275 -0.252069 -0.030852 -0.108677 -0.165647 -0.084827 0.740027 -0.025854 -0.030488 -0.378022 -0.199183 -0.466574 -0.030799 -0.844534 -0.072647 -0.322835 0.141258 -0.026193 -0.054148 
期 -0.594193 -0.563214 0.195178 -0.287022 0.005516 0.009628 -0.012087 -0.486384 -0.327303 -0.267797 -0.371970 -0.094097 -0.422605 0.630119 -0.021862 0.282527 0.002193 -0.122717 -0.422851 -0.139998 -0.116502 0.309432 -0.256844 0.360202 -0.316481 0.372041 0.167804 -0.052400 -0.000728 -0.393851 0.362127 0.072733 -0.153885 -0.026047 0.135904 0.118206 -0.125477 0.237157 -0.213634 -0.270013 -0.193489 -0.182721 -0.381603 -0.384840 0.371065 0.160261 0.335355 -0.640482 -0.131221 -0.337850 
杂 0.152055 0.816933 -0.130157 -0.115266 -0.210773 0.329051 0.140048 -0.784948 -0.644300 0.264513 0.512605 0.486780 -0.068857 0.034518 0.287788 0.018079 0.504244 -0.917751 -0.057064 -1.198906 0.782577 -0.108796 0.053147 0.172669 0.423317 1.027526 -0.428382 -0.051161 0.045732 -0.659687 -0.125984 -0.487720 -0.113717 -1.054885 0.253468 0.690500 -0.030574 0.059508 0.774510 0.615995 -0.020136 -0.242021 -0.342278 0.236708 -0.653507 -0.875462 -0.130811 -0.403216 0.273187 0.393593 
热 0.247808 -0.748691 -0.291970 -0.286394 0.121724 0.051809 -0.513637 0.466554 0.111026 -0.137762 -0.566942 -0.021737 -0.389129 0.127884 0.145747 0.487441 0.125769 -0.067872 0.276321 -0.012492 0.008726 -0.205317 -0.668685 -0.570653 0.274176 -0.070540 -0.504814 0.292655 -0.218885 -0.623153 0.343231 0.289370 -0.552365 0.000877 0.210219 0.057416 0.040999 -0.284549 0.218705 -0.120759 0.047329 0.024314 -0.307972 0.099885 0.073216 -0.299537 -0.239770 -0.170896 -0.593963 -0.322719 
重 -0.159543 -0.488317 -0.669481 0.575943 -0.538290 0.194844 -0.030103 -0.123725 -0.150599 -0.091965 -0.005431 0.326194 0.048580 0.164564 -0.390988 -0.090162 0.111195 -0.530855 0.419433 -0.115620 0.182549 0.086781 0.366555 -0.218680 -0.012135 0.036142 -0.649130 0.225846 0.008049 0.434755 0.461868 0.327410 -0.360946 0.119085 0.153005 0.533370 -0.080727 -0.368150 0.175427 -0.223246 0.166925 -0.273125 -0.155038 -0.179754 0.084543 0.222033 0.405451 -0.290490 -0.536182 -0.114199 
周 -0.281740 0.116253 -0.280732 0.205994 0.143738 0.109128 -0.239327 -0.256316 -0.596303 -0.283295 -0.555466 0.067701 -0.251816 0.039484 0.051047 -0.258412 -0.132616 -0.321128 -0.376258 -0.063476 0.286960 -0.007620 -0.187420 0.148089 -0.051707 0.207303 -0.296702 -0.076799 -0.414234 -0.289257 0.129447 -0.085183 -0.255527 -0.281208 0.092446 -0.127741 0.107258 -0.348867 -0.235236 -0.362677 0.023774 0.179135 -0.687017 0.028750 -0.282473 0.225823 0.065555 -0.193057 -0.378444 -0.442931 
科 -0.098524 0.160166 -0.504928 -0.387305 0.095048 0.217655 -0.044257 -0.366126 -0.003732 0.058740 -0.354794 0.250590 -0.453683 -0.370761 0.300552 0.161528 -0.217481 -0.502755 0.055044 -0.065334 -0.238217 0.286615 0.026991 0.447043 -0.346606 -0.251791 0.332503 0.019147 -0.295730 -0.457936 0.558583 -0.496175 -0.572514 -0.622877 0.435817 0.011435 -0.249858 -0.610132 0.114171 0.316944 -0.798208 0.000588 0.208299 0.195987 0.515142 0.122812 0.495100 -0.362015 -0.273052 -0.035556 
门 0.307019 0.089622 -0.380110 -0.376740 -0.369284 0.029560 0.359895 -0.442547 -0.635204 0.280043 -0.247684 -0.131653 -0.922517 -0.195729 0.238077 0.101776 -0.143511 -0.119497 -0.509000 0.113077 -0.293129 0.338927 -0.554645 0.458868 -0.111159 -0.434815 -0.342011 0.210232 -0.460802 -0.487369 0.186516 -0.349226 -0.238227 -0.123511 0.478755 -0.079821 0.271312 -0.301185 0.281002 -0.052866 -0.302788 -0.146314 -0.153088 -0.173724 0.449141 -0.006867 0.277143 -0.399345 -0.018467 0.089057 
道 0.530514 -0.668767 0.103127 -0.060324 0.136322 -0.387145 0.716359 0.049359 0.052407 0.311875 -0.545143 0.403831 -0.326728 0.503539 -0.097623 0.477368 -0.178428 -0.320909 -0.124026 0.267022 -0.208271 -0.066376 -0.020036 0.182740 0.207627 0.261424 -0.149594 -0.308988 -0.450997 -0.356429 -0.031781 -0.248992 -0.483125 0.113923 0.112768 -0.080564 -0.338841 -0.081140 0.371996 -0.691562 -0.161074 -0.207807 -0.034623 0.167367 0.022142 -0.200565 -0.751648 -0.176693 -0.108906 0.247710 
片 -0.209652 0.173051 0.131231 -0.406775 0.011191 0.283962 0.092209 0.459557 -0.401647 0.278162 0.573258 -0.118536 0.041811 -0.152587 0.195473 0.262540 0.498982 0.161221 -0.225317 0.049497 -0.445631 -0.270087 -0.071134 -0.050860 -0.002259 0.138907 -0.522596 0.750945 -0.033444 0.078190 0.093414 -0.131814 -0.539282 0.176233 -0.404309 0.154687 -0.782201 -0.453176 -0.032565 0.057466 0.015473 -0.132284 -0.107410 -0.376253 0.717247 0.389686 0.156117 0.199918 0.177896 0.184044 
干 -0.525644 -0.043288 0.361127 0.056431 0.059361 -0.304868 0.058076 0.738953 -0.056199 0.267258 0.222298 -0.373493 -0.484322 -0.147480 -0.163234 0.260999 -0.049346 -0.475211 -0.401198 -0.491264 -0.136456 -0.639789 -0.393990 0.101206 0.597863 0.372538 -0.156227 -0.178657 0.379116 -0.213824 -0.070863 -0.740878 -0.092455 0.017396 -0.300328 0.118212 -0.100898 0.138301 0.389690 0.518772 -0.244739 0.002295 -0.013257 0.233784 0.399421 0.035955 -0.391559 -0.357770 -0.789223 0.036839 
称 -0.018502 0.082735 0.187917 -0.256748 0.086050 -0.053261 -0.319078 -0.625223 -0.263235 0.761127 0.447792 0.793923 0.618454 0.004069 -0.074965 0.629419 0.404926 0.102342 0.927133 0.022820 -0.061449 -0.056081 -0.566287 0.166434 0.912696 0.804011 -0.369143 0.226576 -0.024662 0.086315 0.221715 -0.417036 -0.069755 -0.298247 -0.093066 0.018019 0.398791 -0.539970 -0.060470 -0.002061 0.110301 -0.142217 0.114552 -0.073571 1.051872 0.307322 -0.582354 -0.033959 -0.464010 0.351745 
产 -0.184595 -0.623930 -0.670093 0.086547 0.307005 0.189523 -0.055444 -0.740158 -0.539119 -0.014342 -0.344593 0.375989 0.061353 0.674474 -0.345414 -0.139729 -0.364495 -0.836910 -0.480275 -0.051070 0.102416 0.100669 -0.187580 0.199056 0.117488 0.318340 0.239660 -0.240941 -0.199612 -0.008489 0.330648 -0.204538 -0.130627 -0.848872 0.470470 -0.278697 -0.768152 -0.581651 0.034621 -0.286040 -0.281130 -0.066866 0.006387 0.320242 0.184462 -0.557753 -0.759189 -0.237108 -0.521154 -0.113106 
鼻 -0.146813 0.426145 0.200795 0.231297 -0.138009 -0.334328 -0.335936 0.057051 0.837710 -0.088345 -0.279302 0.208976 -0.861529 0.139320 0.530705 0.205390 0.100634 -0.278324 0.170135 -0.378540 -0.688689 0.160055 0.272555 0.325326 0.468849 0.026844 0.011025 0.224146 0.269446 0.036493 -0.309835 0.528884 -0.241646 -0.872306 0.418231 -0.222219 -0.649246 0.016226 0.038385 -0.126593 0.399304 -1.124402 0.166586 0.436653 0.399929 0.498518 -0.009506 -0.032113 -0.639164 0.908005 
况 0.180342 0.388467 -0.162059 0.009289 -0.450596 0.464585 0.521904 -0.345761 -0.124931 -0.141407 0.013462 -0.290787 0.022234 0.240087 0.180072 0.739910 0.476174 -0.801387 -0.000393 0.192506 0.008779 0.189735 0.117059 -0.188201 -0.505771 0.378481 -0.264805 0.234918 -0.288125 -0.136546 0.433521 -0.363707 -0.049116 -0.666314 -0.037172 -0.218925 0.163366 -0.051751 -0.114613 0.032763 0.094026 0.308019 0.246032 0.297828 -0.010621 -0.300077 -0.677972 -0.586831 -0.406541 -0.587637 
肋 0.276753 0.374045 0.312487 -0.391438 -0.405503 -0.033089 -0.759012 -0.486751 -0.092528 0.375292 0.526164 -0.394343 0.032031 0.695210 -0.159587 -0.475313 0.556532 0.000484 0.001409 0.377438 0.612755 -1.049213 -0.658286 1.022306 0.365059 1.144032 -1.239652 -0.023518 -0.039509 -0.407885 0.947211 -0.008828 0.049448 -0.265273 0.026785 0.513835 0.279781 -0.855159 0.730369 0.023379 -0.335718 -0.295347 -0.304030 0.929092 -0.788870 -0.099048 -0.477608 -1.134127 1.090367 0.286351 
流 0.901914 -0.297674 0.112331 0.514765 0.581037 -0.207459 0.288926 0.079769 -0.094075 -0.238946 0.100141 0.291921 -0.035063 0.460241 0.169204 0.234131 -0.089301 -0.614392 0.053804 0.042409 0.166672 0.051768 -0.506164 0.184139 0.310113 0.072442 -0.071990 -0.448690 0.038212 -0.498641 0.385666 -0.201936 -0.385236 -0.275519 0.254076 0.006391 -0.474303 0.126387 0.139688 -0.458828 0.154744 -0.024179 -0.553507 0.053446 -0.004009 -0.228719 -0.822202 0.100711 -0.300647 0.035807 
囊 0.449766 -0.021137 0.476507 -0.002121 0.213950 0.202841 -0.356839 0.010333 -0.258280 0.139651 0.005622 -0.238672 -0.648927 0.237090 0.238151 -0.553197 -0.034406 0.116806 -0.556378 -0.346993 -0.998447 -0.022383 -0.305568 0.133037 -0.011154 -0.025296 -0.148902 0.251736 -0.423663 -0.276681 0.157107 0.226278 -0.461816 -0.189713 -0.276236 0.402724 0.233145 0.165623 -0.195768 0.217668 -0.273854 0.172741 0.105992 0.102873 -0.921784 0.326662 -0.081284 -0.168837 -0.471069 -0.133481 
于 -0.546634 -0.211212 0.180739 -0.099371 -0.147220 0.111486 -0.217153 0.333130 -0.339509 0.095429 0.065901 -0.138496 -0.254967 -0.002696 -0.118273 -0.118928 -0.219658 -0.360331 0.050434 0.110908 0.140665 0.153621 -0.678014 0.590729 -0.249157 0.226594 -0.520451 -0.211067 -0.231639 0.456944 0.572572 -0.053736 -0.268927 -0.045375 0.148010 -0.257455 -0.178212 -0.027153 -0.237134 -0.378010 0.014663 0.536442 -0.311478 -0.112509 -0.052938 -0.119733 0.126488 -0.142726 0.266979 0.023824 
律 -0.844124 0.088412 -0.185781 -0.086976 -0.227606 0.065534 0.215154 -0.237247 -0.540593 0.404381 0.145378 0.371873 -0.613283 -0.000700 -0.182118 0.032648 0.085727 -0.061584 0.127376 -1.088666 0.232157 0.126539 0.031950 0.496222 -0.422796 0.858594 -0.372213 0.054105 0.548757 -0.734059 -0.353193 -0.358348 0.113707 0.299081 -0.100644 -0.408605 -0.263937 0.160201 0.081691 0.490774 0.121053 -0.101839 -0.366468 -0.108889 0.485764 0.270999 -0.104163 -0.395897 -0.371878 0.058071 
量 0.434901 -0.676746 0.383750 0.505756 0.077692 -0.328100 0.422971 0.330900 -0.739858 -0.159257 -0.067264 -0.017995 0.096238 0.167851 -0.100373 0.490912 0.064945 -0.471406 0.136262 -0.076109 0.622882 -0.153653 -0.276531 0.123380 -0.057027 0.395920 0.195101 0.060132 -0.321551 -0.250506 0.061992 -0.099921 -0.297402 -0.094408 0.045805 -0.010277 -0.408873 0.294834 -0.253465 -0.356803 0.359729 0.049448 -0.198015 -0.104548 0.239642 0.264749 -0.037002 -0.186524 -0.715609 0.395672 
自 -0.359463 -0.120495 -0.223265 0.214386 -0.061296 0.508689 0.411601 0.220154 0.183336 0.246168 0.280685 0.481048 -0.317398 -0.237422 -0.001401 -0.008551 0.031249 -0.110554 0.462598 0.313948 0.244540 0.325084 -0.270617 0.117471 0.102765 0.572995 0.274686 0.154084 -0.466131 0.125054 0.112610 0.171073 -0.120406 -0.044367 0.556716 0.028815 -0.615565 0.249890 0.054509 -0.621526 -0.252765 0.389464 0.333047 0.184256 0.148818 0.094306 -0.083294 -0.349963 -0.207526 -0.468857 
服 -0.062510 -0.257737 0.303120 0.006742 -0.261223 -0.102814 -0.485510 -0.090789 -0.033403 0.138641 0.465342 -0.130674 -0.665643 -0.028472 0.213774 0.066275 0.366967 0.226473 -0.516286 -0.313385 -0.321898 -0.503104 -0.156860 0.285730 -0.007842 0.331700 -0.123412 0.104275 0.131022 -0.468173 -0.003476 0.412332 -0.141565 -0.035711 -0.031325 -0.200352 -0.369687 -0.273936 0.307082 -0.467995 0.277882 0.590784 0.192712 -0.615414 0.539378 -0.023676 0.341112 -0.723813 -0.481434 -0.497724 
胃 -0.161282 0.488165 -0.290002 -0.709757 -0.306862 -0.476348 0.334455 0.045494 0.136984 0.169965 0.059970 0.037773 -1.062627 0.014235 0.224550 0.031958 -0.108770 -0.035862 -0.250022 0.119764 -0.630829 0.192073 -0.083152 -0.091873 0.120784 0.371840 -0.012591 0.252010 0.290989 -0.375508 0.035113 -0.026941 -0.513014 0.221310 0.484460 -0.148385 -0.347649 0.752965 -0.042871 -0.139226 0.190553 -0.681021 0.205926 0.138543 -0.339431 0.156052 -0.177961 0.349928 -0.554885 -0.083544 
声 0.514589 -0.205140 0.128700 0.191320 0.225783 0.362529 -0.471448 -0.543982 -0.964104 0.189364 0.370667 -0.507447 -0.610266 0.856840 0.066083 -0.009880 -0.455986 0.167178 -0.258356 -0.182540 -0.232696 0.398668 -0.210345 0.359761 0.449605 -0.570052 -0.631902 0.572178 0.049798 -0.056848 -0.389797 0.044662 -0.415143 -0.344316 -0.481904 -0.235101 -0.068218 -0.165914 -0.573988 0.307983 -0.120815 -0.108465 -0.491687 0.048123 -0.015352 0.271606 -0.061298 -0.218214 -0.653892 0.028926 
四 -0.092057 -0.135706 -0.357390 -0.449016 0.330799 0.289692 0.000746 -0.190218 0.122007 0.418011 0.386605 0.304539 0.139872 -0.108363 0.072691 0.025821 0.399384 -0.634024 0.115248 0.111137 0.216297 -0.081917 -0.689123 0.254637 0.543144 0.999034 0.195383 0.096369 0.391378 0.016449 -0.360240 -0.191978 -0.020066 0.314655 0.318256 -0.119114 -0.101414 -0.141489 -0.519751 -0.258993 -0.526517 -0.052760 0.181912 0.523705 0.144176 0.591189 -0.050715 -0.265038 0.227275 -0.002531 
胎 -0.998910 0.102966 -0.445694 0.151677 0.399954 -0.118389 0.132588 -0.333402 -0.415707 0.661692 -0.371055 0.522009 -0.086006 0.749402 0.376241 0.650279 -0.194002 -0.450105 -0.027972 0.391827 0.239102 -0.226673 0.194135 0.355280 -0.033445 0.581753 -0.115886 -0.962604 0.072266 0.135529 -0.204225 -0.290659 -0.983415 -0.429824 -0.102716 -0.257003 -1.117136 -0.285719 -0.107886 -0.457431 0.033421 0.867574 0.128139 0.133750 -0.421997 0.179867 -0.766711 -0.586504 -0.220298 -0.216769 
以 -0.070063 -0.094502 -0.339190 -0.022788 -0.193997 0.002794 0.074415 0.313933 -0.119388 -0.003212 0.057445 0.223147 -0.352566 0.015512 0.027953 0.141980 -0.081100 -0.002339 -0.004025 0.128583 -0.692753 -0.368309 -0.299950 0.239405 -0.072973 0.176247 0.235013 0.064298 -0.098282 -0.063450 0.095897 0.083821 -0.285252 -0.196400 0.595055 -0.480137 0.061690 -0.224005 0.218043 0.027599 0.006165 0.257816 -0.030949 0.068083 -0.027611 0.137605 0.094652 -0.201448 -0.041702 -0.112638 
师 -0.385584 0.305739 -0.108555 -0.916881 0.185301 0.738323 -0.141081 -0.107267 0.002114 -0.660066 0.199868 -0.029566 0.112720 -0.494518 -0.063571 0.190468 0.224622 -0.653183 0.349085 0.133355 0.177680 -0.142218 -0.083011 0.756225 0.141825 -0.199566 -0.467661 0.388677 0.046956 -0.746533 -0.450238 0.473589 -0.621074 -1.250260 0.468021 -0.457126 -0.179752 0.290156 -0.424734 -0.015222 0.244269 -0.004300 0.104243 0.198246 -0.270062 -0.402341 -0.054336 0.071863 -0.521392 -0.015494 
适 0.034091 -0.038472 -0.415736 -0.352274 -0.465009 -0.356123 -0.002200 -0.129208 -0.247728 0.036427 0.220450 -0.054123 -0.441713 -0.159086 -0.152752 0.567082 0.284630 -0.014554 -0.061386 0.024814 0.357501 0.477750 -0.256302 0.055141 0.143313 -0.320943 -0.053012 0.529303 -0.278648 -0.402557 0.099345 -0.138020 -0.186525 -0.330574 0.299030 0.195071 0.066027 -0.134458 -0.007454 -0.253343 -0.665208 -0.519233 -0.323817 -0.171682 0.723510 -0.625303 -0.241232 -0.253157 -0.709417 -0.694700 
胞 -0.175148 -0.629711 -0.437363 -0.878487 0.142656 -0.503111 -0.057271 -0.132467 -0.603350 -0.378666 -0.049861 0.024092 -0.197580 0.024250 0.222720 -0.122738 -0.064159 0.033754 -0.110872 -0.084011 0.202421 -0.992863 -0.335511 0.467866 0.572872 0.363233 -0.620194 0.315229 -0.561411 0.037530 -0.611331 0.169854 0.003614 0.056627 0.184093 0.022445 -0.653381 0.038051 -0.768306 0.257811 0.365397 0.174506 0.239547 0.235943 -0.163782 0.382450 0.243580 -0.103535 -0.210715 0.560968 
接 0.181864 -0.276737 -0.282287 0.163922 -0.305717 -0.301859 -0.618530 -1.118768 0.485068 -0.447742 -0.210980 -0.146295 -0.133545 1.152322 0.823304 -0.026956 0.016472 0.447976 -0.481301 0.261537 0.270616 -0.083653 -0.690612 1.365971 0.547059 0.381305 0.083924 0.509972 -0.289740 -0.078984 0.680203 -0.769059 0.076652 -0.048296 -0.056149 0.742886 0.140313 0.167436 0.066946 0.083617 -0.109529 0.912015 0.400222 -0.145600 0.075088 -0.040009 -0.244837 -0.362701 -0.811963 0.369500 
房 -0.411760 0.343526 -0.179101 -0.541177 0.119647 0.416769 -0.282513 0.030074 -0.218625 -0.314141 0.123399 -0.147849 -0.150606 -0.255884 -0.115255 0.224944 0.389519 -0.399396 0.223922 0.273987 0.084905 0.266345 0.070312 0.233233 0.620196 -0.040811 -0.293541 0.001884 0.185762 -0.615747 -0.221725 0.336442 -0.477142 -0.859452 0.061309 -0.390222 -0.248308 0.103198 -0.382472 -0.182972 0.335082 0.023828 -0.209152 0.342878 0.234879 -0.559359 -0.139177 0.256162 -0.474180 -0.045087 
擦 -0.441569 0.448518 -0.452311 -0.243985 0.080382 0.099314 0.092957 -0.930878 -0.620892 0.802464 0.694038 0.559874 -0.199229 -0.066971 -0.366187 0.608132 0.330991 0.438273 0.207654 -0.735187 0.493900 0.223007 -0.525847 0.268398 0.400015 0.438043 -0.482091 -0.019885 -0.050185 -0.528075 -0.048790 -0.199014 -0.389957 -0.965549 -0.032620 0.634978 0.502651 -1.445961 0.360085 0.896071 0.842935 -0.007195 -0.524513 0.914211 -0.354364 -0.681004 -0.773780 -0.681008 -0.290316 0.601881 
眼 0.078149 0.432641 -0.324966 0.495934 0.450442 0.273580 -0.238510 -0.262956 0.773828 -0.149786 -0.443122 0.335762 -0.664025 0.012798 -0.565755 -0.156834 0.155946 -0.205348 0.236809 -0.149955 -0.067357 0.506793 -0.197771 0.531039 0.225047 -0.170718 -0.211260 0.767020 0.069490 -0.217516 0.077855 0.381040 -0.127583 -0.660123 -0.052868 0.220989 -0.042456 0.564460 -0.129369 -0.164414 -0.441410 0.141660 -0.057777 -0.164924 0.028043 0.693971 0.149579 -0.522216 -0.105265 -0.132842 
今 -0.178291 -0.288603 0.146245 -0.141911 -0.320502 0.346291 -0.218103 0.124654 -0.163075 -0.055729 0.274129 -0.145883 -0.691610 -0.177052 -0.364887 0.497879 0.169356 -0.710333 -0.222991 0.499249 0.315948 -0.027986 -0.587228 0.175717 -0.074455 -0.172555 0.122490 0.035724 -0.271830 -0.342773 -0.334433 0.164710 -0.434331 -0.418354 0.244801 -0.163026 -0.305766 -0.219541 -0.249194 -0.150810 0.498521 0.004858 -0.030858 -0.150171 0.204894 0.041292 -0.216321 -0.171797 -0.067725 -0.198054 
脂 0.334905 0.048560 -0.521855 -0.383217 0.222123 0.039367 -0.271706 -0.106202 -0.063297 -0.188409 0.172747 -0.063343 -0.192395 0.649639 -0.284954 -0.024946 0.815736 -0.482162 -0.452303 -0.348157 -0.192155 0.234701 0.041463 -0.151528 0.408729 0.220853 -0.195962 -0.124699 0.090286 -0.151463 0.284299 0.423938 -0.908367 0.567994 -0.049570 0.331709 -0.256846 0.340966 -0.477602 0.450693 -0.111261 0.085133 0.410600 0.076488 0.233111 -0.035859 0.705582 -0.398831 -0.368068 -0.309697 
酸 -0.137094 -0.109081 -0.261528 0.042836 -0.275217 -0.501974 -0.261002 0.233664 0.065133 -0.477419 0.075537 0.181014 0.058392 -0.310891 -0.166953 -0.250113 0.999048 0.038338 -0.418380 0.213707 -0.398140 -0.004826 -0.563030 -0.093075 0.392356 0.424285 -0.328879 0.318315 0.578433 -0.781222 -0.125820 0.237671 -0.649347 0.310720 0.345470 0.063633 -0.247261 0.256246 -0.488919 -0.186290 -0.699672 0.087768 0.298529 -0.244591 -0.095444 0.288236 0.143288 -0.063302 -0.231435 0.089240 
泌 0.784323 -0.191749 -0.113693 -0.002510 -0.408794 -0.112088 0.496107 -0.176952 -0.555309 0.178174 -0.562997 0.730811 -0.537413 0.401110 -0.343459 -0.085557 -0.135139 -0.452020 0.240928 -0.255133 -0.722880 0.032454 0.139135 0.289964 0.416391 -0.227271 0.106803 0.202978 -0.646763 -0.580769 0.095958 -0.078946 -0.144824 -0.210184 -0.464558 0.134303 -0.391094 -0.148470 0.128570 0.200913 -0.439743 -0.218690 0.357749 0.098378 0.650647 0.474404 0.398228 -0.558105 -0.490244 0.465680 
咽 0.468223 0.604692 -0.093486 -0.101503 -0.774158 -0.282748 -0.407108 -0.091581 0.362654 -0.196470 -0.483528 -0.120615 -0.112523 -0.183745 0.420821 0.813614 -0.085226 -0.266117 -0.171644 -0.384058 -0.118632 -0.216080 -0.333789 -0.028054 0.575832 0.073805 -0.414558 -0.115714 -0.014178 0.613865 -0.147053 0.466003 -0.402431 -0.154839 -0.214859 -0.043133 -0.443638 -0.143651 -0.073144 0.317021 0.140483 -0.498981 -0.376480 0.652878 0.205640 0.306937 -0.207779 -0.358709 -0.835302 0.245398 
起 -0.071321 0.098475 -0.383950 0.158501 0.298916 -0.334247 -0.115991 0.858202 -0.385119 -0.337944 -0.052795 0.125314 -0.798449 -0.628341 -0.268923 -0.206673 -0.170776 -0.019791 0.732374 0.141094 0.050315 0.060944 -0.419438 0.413287 -0.002703 0.289205 -0.475304 -0.275787 0.096968 0.116057 0.968126 -0.499837 -0.195627 -0.447843 0.096674 -0.040728 -0.181709 0.016736 0.199058 0.017441 0.238410 0.249420 0.224128 0.396606 -0.501888 -0.406726 0.171791 -0.477648 -0.105602 0.314858 
慢 0.156643 0.133866 -0.018253 -0.221957 -0.245211 -0.226638 0.115531 -0.243175 0.211363 -0.513277 -0.264960 0.292815 -0.242202 -0.041913 0.005368 -0.331391 0.311441 -0.230600 0.196653 -0.716454 -0.646143 -0.011077 -0.164123 0.284031 -0.250058 0.444844 -0.622834 0.316326 0.559769 0.067869 0.925131 0.418548 -0.674589 0.083239 -0.243628 0.238085 -0.396423 0.701069 0.468567 0.262669 0.310943 -0.763912 -0.395243 0.077032 -0.436692 -0.345255 0.152995 0.090401 -0.095835 0.235740 
善 0.056373 -0.073132 -1.216145 -0.217064 0.124097 0.202668 0.112236 -0.083821 -0.251170 -0.222463 0.201139 0.465590 -0.386663 0.566837 -0.460441 0.052012 0.343399 0.045858 -0.430947 0.472167 -0.698122 0.147411 0.137313 0.241801 -0.298455 0.127019 -0.262862 0.676917 0.411914 0.101517 -0.567646 -0.191289 -0.240260 -0.024444 0.190729 -0.257187 -0.514821 0.008926 -0.011288 0.271302 0.011565 0.231064 -0.090616 0.756753 0.223641 0.092735 0.011400 -0.106085 0.154013 -0.537222 
蛋 0.547750 -0.870181 -0.669965 -0.380105 0.500234 -0.428831 0.014900 -0.651664 -0.644789 -0.350807 0.053263 0.160277 -0.114192 0.003308 -0.182339 -0.158399 1.181454 -0.248563 -0.096657 -0.075129 0.683876 -0.143311 -0.291901 0.648890 0.646027 0.405177 0.017910 0.143371 -0.195873 -0.515728 0.129480 0.249912 -0.799708 0.153330 -0.353298 0.513796 -0.373399 0.263312 -0.677153 0.578883 -0.061362 -0.059213 0.352804 -0.460827 0.376456 0.042963 0.027478 -0.219423 -0.037152 0.520438 
摩 -0.678793 0.313715 -0.312140 -0.631589 -0.369097 0.023905 0.188501 -1.057210 -0.973981 0.740534 0.237974 0.549310 0.063119 -0.220973 -0.912119 0.385237 0.096358 -0.057957 0.249980 -1.059379 0.380981 0.676560 -0.308445 0.444606 0.495635 0.504767 -1.112809 0.351042 -0.063189 -0.138405 0.274745 -0.163607 -0.020189 -0.811970 0.996727 0.151845 0.510739 -1.051132 1.387804 1.091688 0.809485 0.130842 -0.124596 1.253862 -0.270034 -0.009804 -0.904538 -0.615771 0.128564 0.838466 
充 0.527352 0.555044 -0.316447 0.334911 -0.859201 0.295339 -0.381052 -0.144404 -0.150847 -0.226089 -0.414768 0.054403 -0.341241 0.347862 -0.021209 0.398653 0.412908 0.081902 0.206278 -0.480887 -0.339965 -0.883812 -0.398955 0.023162 0.570235 -0.052950 -0.022343 -0.160230 -0.110505 0.266952 -0.476843 0.237520 -0.688267 -0.515070 -0.383246 -0.093204 -0.068105 0.353329 0.240619 0.654716 0.383567 -0.258882 0.074534 0.420180 0.378574 0.337801 -0.080538 -0.584849 -0.194992 0.436496 
